{"learner":{"attributes":{"best_iteration":"99","best_ntree_limit":"100","scikit_learn":"{\"use_label_encoder\": null, \"n_estimators\": 100, \"objective\": \"binary:logistic\", \"max_depth\": null, \"max_leaves\": null, \"max_bin\": null, \"grow_policy\": null, \"learning_rate\": null, \"verbosity\": null, \"booster\": null, \"tree_method\": null, \"gamma\": null, \"min_child_weight\": null, \"max_delta_step\": null, \"subsample\": null, \"sampling_method\": null, \"colsample_bytree\": null, \"colsample_bylevel\": null, \"colsample_bynode\": null, \"reg_alpha\": null, \"reg_lambda\": null, \"scale_pos_weight\": null, \"base_score\": null, \"missing\": NaN, \"num_parallel_tree\": null, \"random_state\": null, \"n_jobs\": null, \"monotone_constraints\": null, \"interaction_constraints\": null, \"importance_type\": null, \"gpu_id\": null, \"validate_parameters\": null, \"predictor\": null, \"enable_categorical\": false, \"feature_types\": null, \"max_cat_to_onehot\": null, \"max_cat_threshold\": null, \"eval_metric\": null, \"early_stopping_rounds\": null, \"callbacks\": null, \"classes_\": [false, true], \"n_classes_\": 2, \"_estimator_type\": \"classifier\"}"},"feature_names":[],"feature_types":[],"gradient_booster":{"model":{"gbtree_model_param":{"num_parallel_tree":"1","num_trees":"100","size_leaf_vector":"0"},"tree_info":[0,0,0,0,0,0,0,0,0,0,0,0,0,0,0,0,0,0,0,0,0,0,0,0,0,0,0,0,0,0,0,0,0,0,0,0,0,0,0,0,0,0,0,0,0,0,0,0,0,0,0,0,0,0,0,0,0,0,0,0,0,0,0,0,0,0,0,0,0,0,0,0,0,0,0,0,0,0,0,0,0,0,0,0,0,0,0,0,0,0,0,0,0,0,0,0,0,0,0,0],"trees":[{"base_weights":[-7.52158E-2,-9.4843715E-1,1.5384846E0,-1.2963861E0,-3.3941045E-1,8.378346E-1,1.8885049E0,-7.91842E-1,-1.561989E0,1.2378626E0,-7.031741E-1,1.606735E0,3.690535E-1,1.9141945E0,-1.004525E0,-1.1389633E0,7.0693396E-2,-1.1097487E0,-1.6156586E0,1.6375235E0,8.2871175E-1,3.918946E-2,-1.0397753E0,1.9029987E0,1.2393531E0,5.5119973E-1,-1.5772775E0,1.6622163E0,1.979498E0,-1.372664E0,1.7289972E0,-2.2160931E-1,-1.3750279E0,8.2088476E-1,-2.425896E-1,-1.2941847E0,-2.9690048E-1,-1.7322876E0,-1.4066206E0,1.3772228E0,1.7948129E0,4.3648538E-1,1.1947623E0,-4.7001177E-1,5.9278387E-1,-1.1932606E0,-4.1759026E-1,1.9650667E0,1.6488613E0,1.410926E0,3.2994062E-1,1.1854476E0,1.7244473E-1,6.26943E-1,-1.7752862E0,1.8016844E0,1.1761911E0,1.6417787E0,1.9854802E0,1.7956204E0,-1.5377504E0,1.9116719E0,5.714286E-1,-5.975538E-1,6.7798084E-1,1.9185939E0,-1.4046338E0,2.7424935E-1,1.1850895E0,-3.6728668E-1,1.6996169E0,-1.3720284E0,-7.6637167E-1,2.106671E-2,-1.251004E0,-1.7868717E0,-1.5423054E0,-1.4826816E0,-3.7919876E-1,1.0580579E0,1.6497507E0,1.8987516E0,1.6640465E0,2.9753336E-1,1.7401575E0,2.4024025E-2,1.2423276E0,1.1261708E0,-6.0437495E-1,2.0911081E-1,1.3695469E0,-9.2009187E-1,-1.4347036E0,9.316421E-2,-8.4389055E-1,1.9680847E0,9.247312E-1,1.7397003E0,9.488704E-1,1.6010098E0,9.360571E-1,9.225544E-1,-6.531532E-1,8.9172053E-1,1.4199933E0,1.626585E0,-7.725805E-2,-2.1082622E-1,1.3129412E0,-1.1464738E0,-1.8675603E0,1.6239257E0,1.8810594E0,1.3606205E0,-5.349583E-1,1.8139535E0,-3.97351E-2,1.5784893E0,1.9903284E0,-1E0,1.9097744E0,-1.6765083E0,-2.8136882E-1,1.9483871E0,1.8181819E-1,1.6470588E0,-9.230769E-1],"categories":[],"categories_nodes":[],"categories_segments":[],"categories_sizes":[],"default_left":[1,1,1,1,1,1,1,1,1,1,1,1,1,1,1,1,1,1,1,1,1,1,1,1,1,1,1,1,1,1,1,1,1,1,1,1,1,1,1,1,1,1,1,1,1,1,1,1,1,1,1,1,1,1,1,1,1,1,1,1,1,1,1,0,0,0,0,0,0,0,0,0,0,0,0,0,0,0,0,0,0,0,0,0,0,0,0,0,0,0,0,0,0,0,0,0,0,0,0,0,0,0,0,0,0,0,0,0,0,0,0,0,0,0,0,0,0,0,0,0,0,0,0,0,0,0,0],"id":0,"left_children":[1,3,5,7,9,11,13,15,17,19,21,23,25,27,29,31,33,35,37,39,41,43,45,47,49,51,53,55,57,59,61,63,65,67,69,71,73,75,77,79,81,83,85,87,89,91,93,95,97,99,101,103,105,107,109,111,113,115,117,119,121,123,125,-1,-1,-1,-1,-1,-1,-1,-1,-1,-1,-1,-1,-1,-1,-1,-1,-1,-1,-1,-1,-1,-1,-1,-1,-1,-1,-1,-1,-1,-1,-1,-1,-1,-1,-1,-1,-1,-1,-1,-1,-1,-1,-1,-1,-1,-1,-1,-1,-1,-1,-1,-1,-1,-1,-1,-1,-1,-1,-1,-1,-1,-1,-1,-1],"loss_changes":[5.2842194E5,5.1563547E4,3.2290062E4,2.0750766E4,5.076324E4,1.5811182E4,6.5278125E3,1.5990598E4,2.4605469E3,2.709996E3,1.7964941E4,1.8060234E3,9.662694E3,1.4288438E3,7.80759E2,8.246535E3,3.6023257E3,1.6135615E3,2.2084688E3,3.4090234E2,1.1761089E3,6.3229517E3,4.7232734E3,1.418086E2,1.1572812E3,5.986671E3,1.01914307E3,1.2125664E3,1.36375E2,3.5960583E2,1.8414673E1,2.636727E3,2.9560781E3,8.986035E2,2.6192764E3,3.5945508E2,6.044224E2,6.008125E2,2.5377852E3,2.7339795E2,6.784961E1,7.164201E2,2.3599707E2,2.5064734E3,3.2024924E3,2.6155664E3,2.1315933E3,2.136914E1,1.1352051E2,5.6193555E2,6.8748193E2,6.406738E2,5.666346E3,1.11195465E2,1.2205713E2,1.9338672E2,1.2625996E3,3.5002222E2,1.30875E2,1.2840019E1,1.1267029E2,4.679077E0,2.4025856E1,0E0,0E0,0E0,0E0,0E0,0E0,0E0,0E0,0E0,0E0,0E0,0E0,0E0,0E0,0E0,0E0,0E0,0E0,0E0,0E0,0E0,0E0,0E0,0E0,0E0,0E0,0E0,0E0,0E0,0E0,0E0,0E0,0E0,0E0,0E0,0E0,0E0,0E0,0E0,0E0,0E0,0E0,0E0,0E0,0E0,0E0,0E0,0E0,0E0,0E0,0E0,0E0,0E0,0E0,0E0,0E0,0E0,0E0,0E0,0E0,0E0,0E0,0E0,0E0],"parents":[2147483647,0,0,1,1,2,2,3,3,4,4,5,5,6,6,7,7,8,8,9,9,10,10,11,11,12,12,13,13,14,14,15,15,16,16,17,17,18,18,19,19,20,20,21,21,22,22,23,23,24,24,25,25,26,26,27,27,28,28,29,29,30,30,31,31,32,32,33,33,34,34,35,35,36,36,37,37,38,38,39,39,40,40,41,41,42,42,43,43,44,44,45,45,46,46,47,47,48,48,49,49,50,50,51,51,52,52,53,53,54,54,55,55,56,56,57,57,58,58,59,59,60,60,61,61,62,62],"right_children":[2,4,6,8,10,12,14,16,18,20,22,24,26,28,30,32,34,36,38,40,42,44,46,48,50,52,54,56,58,60,62,64,66,68,70,72,74,76,78,80,82,84,86,88,90,92,94,96,98,100,102,104,106,108,110,112,114,116,118,120,122,124,126,-1,-1,-1,-1,-1,-1,-1,-1,-1,-1,-1,-1,-1,-1,-1,-1,-1,-1,-1,-1,-1,-1,-1,-1,-1,-1,-1,-1,-1,-1,-1,-1,-1,-1,-1,-1,-1,-1,-1,-1,-1,-1,-1,-1,-1,-1,-1,-1,-1,-1,-1,-1,-1,-1,-1,-1,-1,-1,-1,-1,-1,-1,-1,-1],"split_conditions":[2.053747E-5,-4.1839376E-2,2.8941015E-2,-4.4660546E-2,-3.2210156E-2,-2.8705336E-2,1.1067338E-1,-7.312796E-2,-4.5986116E-2,-6.606515E-2,-8.282976E-3,-6.1179392E-2,8.411257E-2,4.925841E-2,6.850262E-2,-2.7826149E-2,-8.962011E-2,6.417173E-2,-6.575152E-2,-2.8663423E-2,-2.6401063E-2,9.134777E-3,2.6959613E-2,-7.976872E-2,2.2274673E-2,-2.338993E-2,4.104113E-2,8.0326036E-2,1.1771509E-1,5.680702E-2,1.7104816E-2,8.304776E-2,-9.4470575E-2,-2.5062738E-3,7.9498395E-2,2.742695E-2,6.202826E-2,3.1910956E-2,4.8124105E-2,4.736545E-3,-8.9259945E-2,6.615963E-2,6.656045E-2,-7.9582095E-2,5.1231313E-2,-4.4999528E-4,-1.8507158E-3,1.470553E-1,8.6789705E-2,6.752607E-2,1.794986E-2,-3.5415366E-3,-1.3739857E-2,8.559356E-2,1.9340243E-2,3.5728015E-2,6.2254682E-2,-8.684495E-3,-7.443452E-2,-4.986784E-2,3.506436E-2,8.2846835E-2,1.0286668E-2,-1.7926614E-1,2.0339426E-1,5.755782E-1,-4.2139015E-1,8.227481E-2,3.5552686E-1,-1.1018601E-1,5.098851E-1,-4.1160852E-1,-2.299115E-1,6.320013E-3,-3.753012E-1,-5.360615E-1,-4.6269163E-1,-4.4480452E-1,-1.1375963E-1,3.1741738E-1,4.9492523E-1,5.696255E-1,4.9921396E-1,8.926001E-2,5.220473E-1,7.207208E-3,3.7269828E-1,3.3785123E-1,-1.8131249E-1,6.273325E-2,4.1086408E-1,-2.7602756E-1,-4.304111E-1,2.7949264E-2,-2.5316718E-1,5.9042543E-1,2.7741936E-1,5.2191013E-1,2.8466114E-1,4.8030296E-1,2.8081715E-1,2.7676633E-1,-1.9594596E-1,2.6751617E-1,4.25998E-1,4.879755E-1,-2.3177415E-2,-6.324787E-2,3.9388236E-1,-3.4394214E-1,-5.602681E-1,4.8717773E-1,5.643178E-1,4.0818617E-1,-1.604875E-1,5.4418606E-1,-1.1920531E-2,4.735468E-1,5.970985E-1,-3E-1,5.7293236E-1,-5.029525E-1,-8.441065E-2,5.8451617E-1,5.454546E-2,4.9411768E-1,-2.769231E-1],"split_indices":[1,1,1,2,2,6,24,1,10,2,6,6,24,1,1,10,2,5,1,1,1,38,38,6,34,12,5,5,0,5,92,5,90,39,32,23,6,14,38,39,2,32,0,6,4,12,42,2,2,2,16,25,2,0,34,4,24,6,7,23,187,16,9,0,0,0,0,0,0,0,0,0,0,0,0,0,0,0,0,0,0,0,0,0,0,0,0,0,0,0,0,0,0,0,0,0,0,0,0,0,0,0,0,0,0,0,0,0,0,0,0,0,0,0,0,0,0,0,0,0,0,0,0,0,0,0,0],"split_type":[0,0,0,0,0,0,0,0,0,0,0,0,0,0,0,0,0,0,0,0,0,0,0,0,0,0,0,0,0,0,0,0,0,0,0,0,0,0,0,0,0,0,0,0,0,0,0,0,0,0,0,0,0,0,0,0,0,0,0,0,0,0,0,0,0,0,0,0,0,0,0,0,0,0,0,0,0,0,0,0,0,0,0,0,0,0,0,0,0,0,0,0,0,0,0,0,0,0,0,0,0,0,0,0,0,0,0,0,0,0,0,0,0,0,0,0,0,0,0,0,0,0,0,0,0,0,0],"sum_hessian":[3.75E5,2.4332825E5,1.3167175E5,1.5485525E5,8.8473E4,4.386625E4,8.78055E4,5.340675E4,1.014485E5,1.658E4,7.1893E4,1.661375E4,2.72525E4,8.7033E4,7.725E2,3.8081E4,1.532575E4,1.07645E4,9.0684E4,8.38575E3,8.19425E3,2.24285E4,4.94645E4,9.19475E3,7.419E3,2.4921E4,2.3315E3,1.791875E4,6.911425E4,6.8125E2,9.125E1,7.79425E3,3.028675E4,4.51425E3,1.08115E4,8.77325E3,1.99125E3,5.820325E4,3.248075E4,3.16225E3,5.2235E3,3.95675E3,4.2375E3,1.168275E4,1.074575E4,3.9676E4,9.7885E3,7.3845E3,1.81025E3,6.241E3,1.178E3,9.317E3,1.5604E4,1.92E2,2.1395E3,1.392125E4,3.9975E3,1.20775E3,6.79065E4,3.325E1,6.48E2,7.825E1,1.3E1,5.49725E3,2.297E3,2.6925E2,3.00175E4,1.80575E3,2.7085E3,1.016E4,6.515E2,7.64425E3,1.129E3,1.49425E3,4.97E2,4.52065E4,1.299675E4,3.02415E4,2.23925E3,1.45875E3,1.7035E3,2.90275E3,2.32075E3,3.57675E3,3.8E2,1.655E2,4.072E3,9.065E2,1.077625E4,7.19375E3,3.552E3,1.861725E4,2.105875E4,4.4535E3,5.335E3,7.36225E3,2.225E1,1.601E3,2.0925E2,4.45525E3,1.78575E3,7.35E2,4.43E2,4.13875E3,5.17825E3,2.286E3,1.3318E4,8.675E1,1.0525E2,2.755E2,1.864E3,4.304E3,9.61725E3,3.60875E3,3.8875E2,1.0955E3,1.1225E2,8.0325E2,6.710325E4,1E0,3.225E1,5.8325E2,6.475E1,7.65E1,1.75E0,7.5E0,5.5E0],"tree_param":{"num_deleted":"0","num_feature":"384","num_nodes":"127","size_leaf_vector":"0"}},{"base_weights":[-5.4052472E-2,-6.761936E-1,1.2056742E0,-9.3306816E-1,-1.4756745E-1,7.1738917E-1,1.4835879E0,-5.6223893E-1,-1.1854905E0,9.118558E-1,-4.5446396E-1,2.0909944E-1,1.1352475E0,1.4961138E0,-7.454623E-1,-8.2388943E-1,1.7616306E-1,-1.2048829E0,-1.2620667E-1,1.2471589E0,5.593517E-1,4.055295E-1,-6.5311766E-1,6.4632607E-1,-5.206899E-1,1.1876416E0,-1.9501152E0,1.3337138E0,1.5393455E0,-1.0363722E0,1.3969826E0,7.12737E-2,-9.6199113E-1,-1.15970485E-1,7.4529904E-1,-1.2949347E0,-1.0156981E0,-8.26684E-1,9.274865E-1,1.3952338E0,1.0534362E0,3.4489948E-1,1.0909171E0,4.188485E-2,1.14173E0,-2.4830629E-1,-8.55615E-1,1.0713594E0,3.909209E-1,1.2716655E-1,-1.1032654E0,1.3744974E0,8.5845447E-1,-1.9823283E0,9.9655086E-1,1.4331855E0,9.678748E-1,-8.452127E-1,1.5399911E0,-1.1727898E0,1.1200336E0,1.4905577E0,-3.505486E-2,-3.8994622E-1,6.6366816E-1,-2.7003998E-1,-1.0473707E0,7.474776E-1,-2.718388E-1,3.7180537E-1,1.1864436E0,-1.4586434E0,-1.2088165E0,-8.029004E-1,-1.2462797E0,-1.1500468E0,-3.7464213E-1,-3.401542E-1,1.4478936E0,1.4643327E0,1.2322754E0,8.597742E-1,1.2885513E0,8.262884E-2,8.389295E-1,1.2276196E0,4.607363E-1,-3.888701E-1,3.495443E-1,1.5174248E0,5.914312E-1,3.6740175E-1,-5.6557775E-1,-9.897052E-1,-2.9744008E-1,8.1122327E-1,1.278328E0,7.7856696E-1,5.9878115E-2,-3.9041835E-1,6.479549E-1,1.3385789E0,-1.2169812E0,1.5410551E0,1.277561E0,1.458715E0,6.692082E-1,1.2818041E0,7.0581734E-2,-2.3467998E-1,1.4396374E0,1.1056293E0,-4.1893795E-1,-1.3834939E0,1.1872776E0,-1.4357821E0,1.540328E0,-1.13772504E-1,-1.3276455E0,-2.6879308E-1,1.5217731E0,1.5238464E0,9.691295E-2,-1.0781542E0,9.6638036E-1],"categories":[],"categories_nodes":[],"categories_segments":[],"categories_sizes":[],"default_left":[1,1,1,1,1,1,1,1,1,1,1,1,1,1,1,1,1,1,1,1,1,1,1,1,1,1,1,1,1,1,1,1,1,1,1,1,1,1,1,1,1,1,1,1,1,1,1,1,1,1,1,1,1,0,1,1,1,1,1,1,1,1,1,0,0,0,0,0,0,0,0,0,0,0,0,0,0,0,0,0,0,0,0,0,0,0,0,0,0,0,0,0,0,0,0,0,0,0,0,0,0,0,0,0,0,0,0,0,0,0,0,0,0,0,0,0,0,0,0,0,0,0,0,0,0],"id":1,"left_children":[1,3,5,7,9,11,13,15,17,19,21,23,25,27,29,31,33,35,37,39,41,43,45,47,49,51,53,55,57,59,61,63,65,67,69,71,73,75,77,79,81,83,85,87,89,91,93,95,97,99,101,103,105,-1,107,109,111,113,115,117,119,121,123,-1,-1,-1,-1,-1,-1,-1,-1,-1,-1,-1,-1,-1,-1,-1,-1,-1,-1,-1,-1,-1,-1,-1,-1,-1,-1,-1,-1,-1,-1,-1,-1,-1,-1,-1,-1,-1,-1,-1,-1,-1,-1,-1,-1,-1,-1,-1,-1,-1,-1,-1,-1,-1,-1,-1,-1,-1,-1,-1,-1,-1,-1],"loss_changes":[2.798251E5,3.2454602E4,1.60168125E4,1.5055422E4,2.541313E4,9.093652E3,2.1014062E3,1.2586549E4,1.96575E3,2.0744033E3,1.0354152E4,6.164722E3,3.8009297E3,5.23125E2,2.638464E2,5.9465547E3,2.834117E3,1.5997656E3,1.2714779E3,2.5661328E2,9.754839E2,3.0447185E3,4.0356016E3,1.311102E3,2.7321343E3,1.4201191E3,3.925598E1,5.711758E2,9.221875E1,1.10525696E2,6.8539963E0,1.7570829E3,2.461668E3,1.5162457E3,9.521875E2,8.958594E2,1.4863574E3,1.5081085E2,4.543275E2,5.55791E1,1.7655127E2,7.9045447E2,2.1138867E2,1.0091679E3,7.7652246E2,3.2073027E3,2.4559043E3,2.4308838E2,9.68603E2,9.24312E2,1.059957E3,2.3598242E2,9.497617E2,0E0,1.2071247E0,1.334336E2,6.4361475E2,1.9839523E1,6.1421875E1,5.7190216E1,1.3018736E1,2.0637665E0,5.314649E0,0E0,0E0,0E0,0E0,0E0,0E0,0E0,0E0,0E0,0E0,0E0,0E0,0E0,0E0,0E0,0E0,0E0,0E0,0E0,0E0,0E0,0E0,0E0,0E0,0E0,0E0,0E0,0E0,0E0,0E0,0E0,0E0,0E0,0E0,0E0,0E0,0E0,0E0,0E0,0E0,0E0,0E0,0E0,0E0,0E0,0E0,0E0,0E0,0E0,0E0,0E0,0E0,0E0,0E0,0E0,0E0,0E0,0E0,0E0,0E0,0E0,0E0],"parents":[2147483647,0,0,1,1,2,2,3,3,4,4,5,5,6,6,7,7,8,8,9,9,10,10,11,11,12,12,13,13,14,14,15,15,16,16,17,17,18,18,19,19,20,20,21,21,22,22,23,23,24,24,25,25,26,26,27,27,28,28,29,29,30,30,31,31,32,32,33,33,34,34,35,35,36,36,37,37,38,38,39,39,40,40,41,41,42,42,43,43,44,44,45,45,46,46,47,47,48,48,49,49,50,50,51,51,52,52,54,54,55,55,56,56,57,57,58,58,59,59,60,60,61,61,62,62],"right_children":[2,4,6,8,10,12,14,16,18,20,22,24,26,28,30,32,34,36,38,40,42,44,46,48,50,52,54,56,58,60,62,64,66,68,70,72,74,76,78,80,82,84,86,88,90,92,94,96,98,100,102,104,106,-1,108,110,112,114,116,118,120,122,124,-1,-1,-1,-1,-1,-1,-1,-1,-1,-1,-1,-1,-1,-1,-1,-1,-1,-1,-1,-1,-1,-1,-1,-1,-1,-1,-1,-1,-1,-1,-1,-1,-1,-1,-1,-1,-1,-1,-1,-1,-1,-1,-1,-1,-1,-1,-1,-1,-1,-1,-1,-1,-1,-1,-1,-1,-1,-1,-1,-1,-1,-1],"split_conditions":[2.9455882E-3,-3.5556585E-2,3.4570575E-2,-3.166288E-2,-1.6983625E-2,2.9965367E-2,1.1809537E-1,-6.52848E-2,5.0108094E-2,-5.32299E-2,-2.260566E-2,7.013528E-3,1.4794189E-1,5.6679044E-2,7.3719904E-2,-4.243809E-2,1.3086846E-2,1.9900702E-2,2.0502226E-2,-7.802531E-2,3.53389E-2,3.1928807E-2,-1.1050113E-2,-2.3010708E-2,1.1609111E-2,3.3530993E-3,1.6131379E-1,8.892344E-2,6.882807E-2,-9.477714E-3,3.537932E-2,2.341013E-2,-4.4609062E-2,-9.614285E-2,1.5947822E-2,-2.0960394E-2,8.997889E-3,-1.726178E-4,-1.9537114E-2,5.494486E-3,-1.8825836E-2,-1.5715197E-2,1.5698757E-2,-1.7191894E-2,-5.8278456E-2,-1.1427309E-2,4.8667103E-2,1.8476847E-1,-1.3781551E-2,1.5341313E-1,-1.9095475E-2,-7.458162E-2,-7.243483E-2,-5.946985E-1,1.1475048E-2,5.5433113E-2,6.559283E-2,6.895052E-2,-1.2569743E-1,-5.0589316E-2,-1.2819549E-2,1.3044915E-1,1.1703348E-1,-1.1698387E-1,1.9910045E-1,-8.1011996E-2,-3.1421122E-1,2.2424328E-1,-8.155165E-2,1.11541614E-1,3.5593307E-1,-4.3759304E-1,-3.6264497E-1,-2.4087012E-1,-3.7388393E-1,-3.4501407E-1,-1.1239264E-1,-1.02046266E-1,4.343681E-1,4.3929982E-1,3.696826E-1,2.5793228E-1,3.8656542E-1,2.4788653E-2,2.5167885E-1,3.682859E-1,1.3822089E-1,-1.16661035E-1,1.0486329E-1,4.5522746E-1,1.7742936E-1,1.1022053E-1,-1.6967332E-1,-2.9691157E-1,-8.923203E-2,2.4336699E-1,3.834984E-1,2.335701E-1,1.7963436E-2,-1.1712551E-1,1.9438647E-1,4.015737E-1,-3.6509436E-1,4.6231654E-1,3.832683E-1,4.376145E-1,2.0076248E-1,3.8454124E-1,2.117452E-2,-7.0404E-2,4.3189123E-1,3.3168882E-1,-1.2568139E-1,-4.1504818E-1,3.561833E-1,-4.3073463E-1,4.6209842E-1,-3.4131754E-2,-3.9829367E-1,-8.0637924E-2,4.5653194E-1,4.5715395E-1,2.9073887E-2,-3.2344627E-1,2.8991413E-1],"split_indices":[1,1,1,2,2,4,24,1,114,2,6,34,26,1,1,10,39,14,38,2,38,10,40,34,16,34,0,5,0,23,221,32,34,2,23,8,6,8,8,40,1,1,34,1,6,42,4,0,12,0,2,6,6,0,16,0,24,4,52,135,20,2,1,0,0,0,0,0,0,0,0,0,0,0,0,0,0,0,0,0,0,0,0,0,0,0,0,0,0,0,0,0,0,0,0,0,0,0,0,0,0,0,0,0,0,0,0,0,0,0,0,0,0,0,0,0,0,0,0,0,0,0,0,0,0],"split_type":[0,0,0,0,0,0,0,0,0,0,0,0,0,0,0,0,0,0,0,0,0,0,0,0,0,0,0,0,0,0,0,0,0,0,0,0,0,0,0,0,0,0,0,0,0,0,0,0,0,0,0,0,0,0,0,0,0,0,0,0,0,0,0,0,0,0,0,0,0,0,0,0,0,0,0,0,0,0,0,0,0,0,0,0,0,0,0,0,0,0,0,0,0,0,0,0,0,0,0,0,0,0,0,0,0,0,0,0,0,0,0,0,0,0,0,0,0,0,0,0,0,0,0,0,0],"sum_hessian":[3.5704172E5,2.3900486E5,1.1803685E5,1.6084494E5,7.815992E4,4.2815332E4,7.522152E4,6.514493E4,9.570001E4,1.7555482E4,6.060444E4,1.9318045E4,2.349729E4,7.480151E4,4.2001102E2,4.810054E4,1.7044393E4,9.397938E4,1.7206252E3,8.99596E3,8.559521E3,1.1372147E4,4.9232297E4,1.2080543E4,7.2375015E3,2.3105537E4,3.9175214E2,1.5732882E4,5.9068625E4,3.7025284E2,4.975816E1,6.428974E3,4.1671562E4,1.126364E4,5.780752E3,6.3667754E4,3.0311633E4,1.0336726E3,6.869526E2,5.0951797E3,3.90078E3,6.100154E3,2.4593682E3,7.612852E3,3.7592952E3,1.641646E4,3.2815832E4,4.533278E3,7.5472656E3,3.427127E3,3.8103748E3,1.4737144E4,8.368393E3,3.878395E2,3.9126143E0,1.2367294E4,3.3655881E3,1.5632612E1,5.9052996E4,3.4865265E2,2.1600182E1,4.666783E1,3.0903287E0,3.6148816E3,2.8140928E3,4.5775273E3,3.7094035E4,1.7217941E3,9.541846E3,3.1314026E3,2.6493494E3,2.1941508E4,4.1726246E4,1.5766052E4,1.4545582E4,6.0170557E2,4.3196707E2,2.0003677E2,4.8691583E2,3.5723953E3,1.5227844E3,2.1415027E3,1.7592773E3,3.9854993E3,2.1146543E3,2.020189E3,4.3917926E2,3.1717754E3,4.4410767E3,2.2330266E3,1.5262686E3,5.5825713E3,1.0833891E4,2.645886E4,6.356974E3,2.0108209E3,2.522457E3,3.4758022E3,4.0714631E3,1.7189753E3,1.7081515E3,1.6907248E2,3.6413022E3,5.416149E3,9.320995E3,2.0043115E3,6.3640815E3,2.6973786E0,1.2152357E0,4.75211E1,1.2319773E4,3.0616702E3,3.039181E2,1.2611829E1,3.0207834E0,6.20273E0,5.9046793E4,4.46995E1,3.0395316E2,4.920562E0,1.6679619E1,4.5487877E1,1.1799531E0,1.4761525E0,1.614176E0],"tree_param":{"num_deleted":"0","num_feature":"384","num_nodes":"125","size_leaf_vector":"0"}},{"base_weights":[-3.870928E-2,-4.9621204E-1,1.0556961E0,-8.040271E-1,-1.6223937E-1,6.680427E-1,1.2975535E0,-3.8857013E-1,-9.570218E-1,5.959123E-1,-3.9135203E-1,7.599681E-1,-1.0011916E0,1.3043698E0,-4.4554073E-1,7.604575E-2,-7.444888E-1,-3.7166488E-1,-9.963208E-1,9.523154E-1,3.0105814E-1,1.8067135E-2,-6.484761E-1,1.1663196E0,5.2596766E-1,-1.1466377E0,7.3248756E-1,9.5258087E-1,1.3187298E0,-7.752473E-1,1.2058183E0,-4.0190935E-1,4.4371718E-1,-1.0048935E0,-3.247588E-1,-6.9842005E-1,1.6032216E-1,-1.0180804E0,-3.5547018E-3,7.85719E-1,1.2002537E0,6.734918E-2,7.338395E-1,-2.117928E-1,6.5286344E-1,-4.2473578E-1,-9.350754E-1,1.2476114E0,6.4235204E-1,9.860226E-1,2.9954046E-1,-3.6843905E-1,-1.2447494E0,-4.458614E-1,1.0632088E0,9.01672E-2,1.0884691E0,1.0570129E0,1.3349489E0,-1.0796615E0,-7.5734265E-2,1.3048824E0,-3.2466922E-2,-2.459312E-2,-6.8371964E-1,9.770957E-2,1.0162234E0,1.5363646E0,-1.0226145E0,4.92827E-1,-5.640779E-1,-8.9764E-1,-3.8990498E-1,-4.547391E-1,5.285727E-1,-8.764916E-1,-1.1275184E0,-4.9715728E-1,1.1806235E0,1.0221354E0,5.1302344E-1,1.2750044E0,1.0444647E0,6.524644E-1,-1.20092854E-1,-3.0531132E-1,8.045787E-1,-3.2734004E-1,7.092706E-1,-1.5108956E-1,8.463801E-1,1.8178195E-1,-5.9673613E-1,-1.3055393E0,-7.3754203E-1,1.341719E0,1.129839E0,7.679415E-1,-5.391869E-1,1.2045294E0,8.137011E-1,6.887884E-1,-9.385556E-2,-6.968689E-1,8.885025E-1,-1.2782199E0,9.4095595E-2,-1.098695E0,6.995469E-1,1.1302962E0,-1.111146E0,9.3968713E-1,-6.162545E-1,8.3441365E-1,1.2022165E0,1.2214005E0,1.6297193E-1,-1.5412774E0,1.3351926E0,3.5139912E-1,-1.1607705E0,-4.84871E-1,1.1038941E0,2.4682225E-1,1.3286793E0,-9.226312E-1,8.448222E-1],"categories":[],"categories_nodes":[],"categories_segments":[],"categories_sizes":[],"default_left":[1,1,1,1,1,1,1,1,1,1,1,1,1,1,1,1,1,1,1,1,1,1,1,1,1,1,1,1,1,1,1,1,1,1,1,1,1,1,1,1,1,1,1,1,1,1,1,1,1,1,1,1,1,1,1,1,1,1,1,1,1,1,1,0,0,0,0,0,0,0,0,0,0,0,0,0,0,0,0,0,0,0,0,0,0,0,0,0,0,0,0,0,0,0,0,0,0,0,0,0,0,0,0,0,0,0,0,0,0,0,0,0,0,0,0,0,0,0,0,0,0,0,0,0,0,0,0],"id":2,"left_children":[1,3,5,7,9,11,13,15,17,19,21,23,25,27,29,31,33,35,37,39,41,43,45,47,49,51,53,55,57,59,61,63,65,67,69,71,73,75,77,79,81,83,85,87,89,91,93,95,97,99,101,103,105,107,109,111,113,115,117,119,121,123,125,-1,-1,-1,-1,-1,-1,-1,-1,-1,-1,-1,-1,-1,-1,-1,-1,-1,-1,-1,-1,-1,-1,-1,-1,-1,-1,-1,-1,-1,-1,-1,-1,-1,-1,-1,-1,-1,-1,-1,-1,-1,-1,-1,-1,-1,-1,-1,-1,-1,-1,-1,-1,-1,-1,-1,-1,-1,-1,-1,-1,-1,-1,-1,-1],"loss_changes":[1.6293716E5,2.3591668E4,8.993672E3,7.590328E3,1.9119395E4,5.656756E3,7.0247656E2,5.3153755E3,2.007375E3,2.6840361E3,8.898173E3,3.3213965E3,4.860852E2,2.9602344E2,1.2662702E2,2.4504465E3,1.9889854E3,9.548802E2,1.7667734E3,4.7673242E2,1.4139991E3,4.7580293E3,3.328873E3,5.429531E2,2.3093174E3,1.3512598E2,5.8757904E1,2.7078833E2,2.385625E2,4.102507E1,4.8034477E0,6.4466864E2,1.5611318E3,5.0736816E2,1.3640466E3,2.0879395E2,4.7378918E2,1.2391484E3,1.0265118E3,4.455874E2,5.276953E1,9.958417E2,3.6060205E2,2.548063E3,1.3487737E3,3.0420107E3,1.6646914E3,1.20958984E2,2.5514429E2,2.743667E2,2.2755796E3,8.328225E1,7.076953E1,2.5804544E1,1.833429E1,1.9005301E2,5.669922E1,4.853806E2,3.9359375E1,1.6011719E1,2.9305023E1,5.7751465E-1,3.7866228E0,0E0,0E0,0E0,0E0,0E0,0E0,0E0,0E0,0E0,0E0,0E0,0E0,0E0,0E0,0E0,0E0,0E0,0E0,0E0,0E0,0E0,0E0,0E0,0E0,0E0,0E0,0E0,0E0,0E0,0E0,0E0,0E0,0E0,0E0,0E0,0E0,0E0,0E0,0E0,0E0,0E0,0E0,0E0,0E0,0E0,0E0,0E0,0E0,0E0,0E0,0E0,0E0,0E0,0E0,0E0,0E0,0E0,0E0,0E0,0E0,0E0,0E0,0E0,0E0],"parents":[2147483647,0,0,1,1,2,2,3,3,4,4,5,5,6,6,7,7,8,8,9,9,10,10,11,11,12,12,13,13,14,14,15,15,16,16,17,17,18,18,19,19,20,20,21,21,22,22,23,23,24,24,25,25,26,26,27,27,28,28,29,29,30,30,31,31,32,32,33,33,34,34,35,35,36,36,37,37,38,38,39,39,40,40,41,41,42,42,43,43,44,44,45,45,46,46,47,47,48,48,49,49,50,50,51,51,52,52,53,53,54,54,55,55,56,56,57,57,58,58,59,59,60,60,61,61,62,62],"right_children":[2,4,6,8,10,12,14,16,18,20,22,24,26,28,30,32,34,36,38,40,42,44,46,48,50,52,54,56,58,60,62,64,66,68,70,72,74,76,78,80,82,84,86,88,90,92,94,96,98,100,102,104,106,108,110,112,114,116,118,120,122,124,126,-1,-1,-1,-1,-1,-1,-1,-1,-1,-1,-1,-1,-1,-1,-1,-1,-1,-1,-1,-1,-1,-1,-1,-1,-1,-1,-1,-1,-1,-1,-1,-1,-1,-1,-1,-1,-1,-1,-1,-1,-1,-1,-1,-1,-1,-1,-1,-1,-1,-1,-1,-1,-1,-1,-1,-1,-1,-1,-1,-1,-1,-1,-1,-1],"split_conditions":[7.530757E-3,-5.0400857E-2,4.022431E-2,-6.464802E-2,-2.1420088E-2,8.985129E-2,1.19806945E-1,-6.354533E-3,-5.953293E-2,-6.0577687E-2,-2.8004912E-3,-3.466404E-2,-1.4842283E-3,-5.9082493E-2,7.3719904E-2,2.6940582E-3,-9.709205E-2,5.371427E-2,6.8464175E-2,-2.3459036E-2,-2.2222906E-2,2.5511496E-2,-5.749821E-7,8.545281E-2,-3.0829692E-2,-4.4234082E-2,-3.6843233E-2,-1.2744188E-2,1.4059892E-1,-4.069296E-2,3.537932E-2,-1.0066079E-2,8.616181E-3,-9.566643E-2,-3.4112744E-2,-5.0284974E-3,-1.5204636E-2,-3.396818E-3,1.5460748E-2,-1.2397416E-3,-7.778793E-2,-2.651279E-2,6.9014795E-2,8.86886E-2,-5.1774886E-3,-1.626772E-2,8.663079E-2,-7.9856485E-2,3.0669542E-2,3.5809106E-3,-2.7641417E-3,1.820952E-2,-1.8534254E-2,2.8127894E-2,4.976193E-2,9.6493274E-2,7.539189E-3,-1.3548579E-2,-1.2569743E-1,-3.6131524E-2,2.4252163E-2,-8.510548E-2,1.1703348E-1,-7.3779365E-3,-2.051159E-1,2.9312871E-2,3.0486703E-1,4.609094E-1,-3.0678436E-1,1.478481E-1,-1.6922338E-1,-2.69292E-1,-1.169715E-1,-1.3642174E-1,1.5857181E-1,-2.629475E-1,-3.3825552E-1,-1.4914718E-1,3.5418707E-1,3.0664062E-1,1.5390703E-1,3.8250133E-1,3.133394E-1,1.9573933E-1,-3.6027856E-2,-9.15934E-2,2.4137363E-1,-9.820201E-2,2.1278119E-1,-4.532687E-2,2.5391406E-1,5.4534588E-2,-1.7902085E-1,-3.916618E-1,-2.2126262E-1,4.0251574E-1,3.389517E-1,2.3038246E-1,-1.6175607E-1,3.6135882E-1,2.4411033E-1,2.0663653E-1,-2.815667E-2,-2.0906068E-1,2.6655075E-1,-3.83466E-1,2.822868E-2,-3.2960853E-1,2.0986407E-1,3.390889E-1,-3.333438E-1,2.8190616E-1,-1.8487635E-1,2.503241E-1,3.6066496E-1,3.6642015E-1,4.889158E-2,-4.6238324E-1,4.005578E-1,1.0541974E-1,-3.4823117E-1,-1.454613E-1,3.3116823E-1,7.404668E-2,3.9860383E-1,-2.7678937E-1,2.5344667E-1],"split_indices":[1,1,1,2,2,24,24,10,10,2,6,6,23,7,1,32,1,5,38,1,1,38,7,2,12,135,25,33,0,23,221,28,23,90,34,23,80,42,114,26,2,26,0,4,4,40,0,6,34,5,34,15,33,106,77,2,25,6,52,77,180,23,1,0,0,0,0,0,0,0,0,0,0,0,0,0,0,0,0,0,0,0,0,0,0,0,0,0,0,0,0,0,0,0,0,0,0,0,0,0,0,0,0,0,0,0,0,0,0,0,0,0,0,0,0,0,0,0,0,0,0,0,0,0,0,0,0],"split_type":[0,0,0,0,0,0,0,0,0,0,0,0,0,0,0,0,0,0,0,0,0,0,0,0,0,0,0,0,0,0,0,0,0,0,0,0,0,0,0,0,0,0,0,0,0,0,0,0,0,0,0,0,0,0,0,0,0,0,0,0,0,0,0,0,0,0,0,0,0,0,0,0,0,0,0,0,0,0,0,0,0,0,0,0,0,0,0,0,0,0,0,0,0,0,0,0,0,0,0,0,0,0,0,0,0,0,0,0,0,0,0,0,0,0,0,0,0,0,0,0,0,0,0,0,0,0,0],"sum_hessian":[3.254209E5,2.2948716E5,9.593374E4,1.1941949E5,1.1006766E5,3.6859098E4,5.9074645E4,3.214186E4,8.727763E4,2.5542832E4,8.452482E4,3.4935723E4,1.9233787E3,5.884479E4,2.29855E2,1.3942335E4,1.8199525E4,5.4915547E3,8.178608E4,1.1563406E4,1.3979427E4,3.260645E4,5.1918375E4,1.276492E4,2.21708E4,1.7748197E3,1.4855893E2,2.3104763E3,5.6534312E4,1.9204272E2,3.781227E1,6.061971E3,7.8803633E3,1.1230569E4,6.968956E3,3.4018003E3,2.0897544E3,8.003191E4,1.7541775E3,6.91871E3,4.6446963E3,9.078204E3,4.901222E3,2.3938852E4,8.667599E3,2.9157994E4,2.276038E4,1.1049279E4,1.7156407E3,7.311645E3,1.4859156E4,1.992414E2,1.5755784E3,3.2481228E1,1.160777E2,3.147271E2,1.9957491E3,3.3029585E3,5.3231355E4,1.3343222E2,5.8610504E1,3.4961533E1,2.8507397E0,2.5922678E3,3.4697036E3,4.912531E3,2.9678328E3,7.7178215E1,1.1153391E4,1.577768E3,5.391188E3,2.065876E3,1.3359243E3,7.825257E2,1.3072288E3,3.489477E4,4.5137133E4,1.2385085E3,5.1566895E2,3.704395E3,3.2143147E3,3.1338362E3,1.51086E3,2.2020015E3,6.876203E3,3.1216983E2,4.5890522E3,2.1271047E4,2.6678044E3,1.6816221E3,6.9859766E3,6.441952E3,2.2716043E4,7.9134653E3,1.4846915E4,6.1359116E3,4.9133677E3,1.5511178E3,1.6452306E2,3.221162E3,4.0904827E3,7.4685776E3,7.390578E3,1.5831927E2,4.0922115E1,1.5371945E3,3.8383812E1,2.0715221E1,1.17660055E1,1.1306924E2,3.0084653E0,1.4274109E2,1.7198602E2,6.1978705E2,1.3759622E3,2.7896572E3,5.1330145E2,3.9724503E0,5.3227383E4,6.9782295E0,1.2645399E2,4.3954494E1,1.4656007E1,1.0191675E0,3.3942364E1,1.3893328E0,1.461407E0],"tree_param":{"num_deleted":"0","num_feature":"384","num_nodes":"127","size_leaf_vector":"0"}},{"base_weights":[-2.7249716E-2,-3.6892137E-1,9.641202E-1,-5.681741E-1,2.9387908E-2,6.2072766E-1,1.1850286E0,-3.0741626E-1,-8.2011735E-1,-2.5507322E-1,4.7407034E-1,1.7044409E-1,8.589336E-1,5.0217545E-1,1.1973022E0,-6.294375E-1,9.608978E-3,-8.6812365E-1,-3.7592554E-1,3.0859426E-1,-4.5220932E-1,6.5149355E-1,-1.0264428E-1,3.8578483E-1,-7.4522704E-1,9.0324384E-1,-1.5428438E0,8.851756E-1,-4.3532726E-1,9.1111964E-1,1.2150381E0,-7.815654E-1,-1.7704193E-2,4.4777513E-1,-1.9854845E-1,-1.0283554E0,-7.190438E-1,-5.490415E-1,7.7089083E-1,-3.4303594E-1,4.462438E-1,7.956506E-1,-5.442377E-1,3.3697957E-1,8.720939E-1,-4.5675772E-1,2.8492248E-1,2.1512903E-1,1.1013418E0,-9.31157E-1,5.2177155E-1,1.1259794E0,7.494405E-1,-1.5635613E0,1.0263892E0,9.536876E-1,-2.2769763E-1,4.2720294E-1,-9.7890514E-1,1.1544515E0,3.6125496E-1,1.1110277E0,1.2285529E0,-4.7512954E-1,-8.804884E-1,-5.152238E-1,5.8299E-1,7.3738766E-1,-3.894688E-1,1.452891E-1,-5.0004345E-1,-9.745908E-1,-1.2999371E0,-9.334356E-1,-5.60124E-1,-8.034431E-1,-2.2034463E-1,1.2689077E0,-2.4321464E-1,-6.88046E-1,5.463471E-1,6.693703E-1,1.0611918E-1,1.0888151E0,4.246302E-1,-6.7864543E-1,1.8042207E-2,-6.7554426E-1,4.4171607E-1,9.050843E-1,-1.546718E0,-5.687709E-1,4.197262E-1,8.2708526E-1,-2.8319346E-2,6.841042E-1,-9.875035E-2,1.3090022E0,5.6957537E-1,-1.0327692E0,1.7332955E-1,-8.322695E-2,1.0680991E0,6.7550814E-1,1.1474757E0,5.24675E-1,9.9523985E-1,-2.1597512E0,-1.5310694E0,1.7563258E-1,9.998536E-1,-2.026251E0,1.816164E-1,7.631368E-1,-7.296223E-1,-1.4047097E0,-3.622445E-2,9.624457E-1,1.2304461E0,8.767169E-1,-2.8363803E-1,1.1744697E0,6.7546463E-1,-1.3265854E0,1.2288054E0],"categories":[],"categories_nodes":[],"categories_segments":[],"categories_sizes":[],"default_left":[1,1,1,1,1,1,1,1,1,1,1,1,1,1,1,1,1,1,1,1,1,1,1,1,1,1,1,1,1,1,1,1,1,1,1,1,1,1,1,1,1,1,1,1,1,1,1,1,1,1,1,1,1,1,0,1,1,1,1,1,1,1,1,0,0,0,0,0,0,0,0,0,0,0,0,0,0,0,0,0,0,0,0,0,0,0,0,0,0,0,0,0,0,0,0,0,0,0,0,0,0,0,0,0,0,0,0,0,0,0,0,0,0,0,0,0,0,0,0,0,0,0,0,0,0],"id":3,"left_children":[1,3,5,7,9,11,13,15,17,19,21,23,25,27,29,31,33,35,37,39,41,43,45,47,49,51,53,55,57,59,61,63,65,67,69,71,73,75,77,79,81,83,85,87,89,91,93,95,97,99,101,103,105,107,-1,109,111,113,115,117,119,121,123,-1,-1,-1,-1,-1,-1,-1,-1,-1,-1,-1,-1,-1,-1,-1,-1,-1,-1,-1,-1,-1,-1,-1,-1,-1,-1,-1,-1,-1,-1,-1,-1,-1,-1,-1,-1,-1,-1,-1,-1,-1,-1,-1,-1,-1,-1,-1,-1,-1,-1,-1,-1,-1,-1,-1,-1,-1,-1,-1,-1,-1,-1],"loss_changes":[9.934613E4,1.7311057E4,5.7018906E3,9.551344E3,9.200341E3,3.156621E3,3.8278906E2,7.2939478E3,1.5764648E3,4.929127E3,2.9035005E3,2.0083545E3,2.049836E3,2.910213E2,2.2698047E2,3.2984873E3,3.2839038E3,1.5933008E3,1.4326125E3,1.0311576E3,3.774519E3,1.5052725E3,9.1644635E2,1.00665955E3,4.573357E2,6.46625E2,2.0183716E1,4.4057312E1,1.1080363E2,3.5098853E2,5.811328E1,8.6003906E2,2.1102231E3,2.8119983E3,2.530433E3,4.6832422E2,1.1773848E3,5.239874E2,4.7835828E2,6.1565405E2,7.2014734E2,2.451018E2,2.3131797E3,9.491441E2,1.0190879E3,3.428069E2,5.4149475E2,9.802783E2,1.7456592E2,1.9001501E2,8.2328415E1,7.396094E1,6.173076E2,3.4083252E0,0E0,1.9286987E1,2.5510235E1,3.6197784E1,5.8041473E1,2.5375E1,2.685606E2,1.3394678E2,2.5777344E1,0E0,0E0,0E0,0E0,0E0,0E0,0E0,0E0,0E0,0E0,0E0,0E0,0E0,0E0,0E0,0E0,0E0,0E0,0E0,0E0,0E0,0E0,0E0,0E0,0E0,0E0,0E0,0E0,0E0,0E0,0E0,0E0,0E0,0E0,0E0,0E0,0E0,0E0,0E0,0E0,0E0,0E0,0E0,0E0,0E0,0E0,0E0,0E0,0E0,0E0,0E0,0E0,0E0,0E0,0E0,0E0,0E0,0E0,0E0,0E0,0E0,0E0],"parents":[2147483647,0,0,1,1,2,2,3,3,4,4,5,5,6,6,7,7,8,8,9,9,10,10,11,11,12,12,13,13,14,14,15,15,16,16,17,17,18,18,19,19,20,20,21,21,22,22,23,23,24,24,25,25,26,26,27,27,28,28,29,29,30,30,31,31,32,32,33,33,34,34,35,35,36,36,37,37,38,38,39,39,40,40,41,41,42,42,43,43,44,44,45,45,46,46,47,47,48,48,49,49,50,50,51,51,52,52,53,53,55,55,56,56,57,57,58,58,59,59,60,60,61,61,62,62],"right_children":[2,4,6,8,10,12,14,16,18,20,22,24,26,28,30,32,34,36,38,40,42,44,46,48,50,52,54,56,58,60,62,64,66,68,70,72,74,76,78,80,82,84,86,88,90,92,94,96,98,100,102,104,106,108,-1,110,112,114,116,118,120,122,124,-1,-1,-1,-1,-1,-1,-1,-1,-1,-1,-1,-1,-1,-1,-1,-1,-1,-1,-1,-1,-1,-1,-1,-1,-1,-1,-1,-1,-1,-1,-1,-1,-1,-1,-1,-1,-1,-1,-1,-1,-1,-1,-1,-1,-1,-1,-1,-1,-1,-1,-1,-1,-1,-1,-1,-1,-1,-1,-1,-1,-1,-1],"split_conditions":[1.195831E-2,-2.980664E-2,4.349793E-2,-1.6611718E-2,3.7648633E-2,8.3372705E-3,-7.4810565E-2,-8.348389E-2,4.2475477E-2,-1.9126013E-2,2.1561392E-2,6.030921E-2,1.4152482E-1,3.4690153E-2,1.4484748E-1,4.8211567E-2,-2.0582365E-2,-4.1430937E-3,3.0326867E-2,8.150278E-2,-4.2099893E-2,1.2866564E-3,-1.2616025E-2,2.6174274E-1,-1.2679657E-2,-1.4739289E-2,1.4934915E-1,3.6094047E-2,1.09427474E-1,-2.8887346E-2,5.964928E-2,-1.0041817E-1,1.6765988E-2,2.117468E-2,-2.0473493E-2,4.7011495E-2,-5.9257913E-3,-5.9594974E-2,1.9593202E-1,1.8502014E-2,3.7350585E-3,-7.134934E-2,2.063386E-1,-5.2694354E-2,1.3795805E-1,2.9418886E-2,-1.5138011E-2,-1.4364535E-2,1.5687712E-1,2.4241343E-2,-1.1279114E-2,-6.0233407E-2,6.66767E-2,-4.40348E-3,3.079168E-1,-2.1615073E-2,-3.066627E-2,3.750571E-2,2.6770938E-2,7.4251175E-2,-2.4829239E-2,1.23460114E-1,-1.2468889E-1,-1.4253888E-1,-2.6414654E-1,-1.5456715E-1,1.74897E-1,2.212163E-1,-1.1684064E-1,4.358673E-2,-1.5001304E-1,-2.9237723E-1,-3.8998115E-1,-2.800307E-1,-1.680372E-1,-2.4103293E-1,-6.610339E-2,3.806723E-1,-7.296439E-2,-2.064138E-1,1.6390413E-1,2.008111E-1,3.1835753E-2,3.2664454E-1,1.2738906E-1,-2.0359364E-1,5.4126624E-3,-2.0266329E-1,1.3251483E-1,2.715253E-1,-4.6401542E-1,-1.7063127E-1,1.2591787E-1,2.4812558E-1,-8.495804E-3,2.0523126E-1,-2.9625107E-2,3.9270067E-1,1.7087261E-1,-3.0983078E-1,5.1998865E-2,-2.4968086E-2,3.2042974E-1,2.0265245E-1,3.4424272E-1,1.5740252E-1,2.9857197E-1,-6.479254E-1,-4.5932084E-1,5.2689776E-2,2.9995608E-1,-6.0787535E-1,5.4484922E-2,2.2894105E-1,-2.188867E-1,-4.2141291E-1,-1.0867336E-2,2.8873372E-1,3.6913383E-1,2.630151E-1,-8.509141E-2,3.5234094E-1,2.026394E-1,-3.9797565E-1,3.6864164E-1],"split_indices":[1,1,1,2,4,4,7,1,38,12,34,24,26,24,0,14,34,16,114,0,2,38,25,0,25,40,0,178,2,6,1,2,20,40,6,18,14,1,0,48,34,2,0,8,28,44,45,6,2,15,23,39,4,16,0,20,84,34,106,4,12,5,52,0,0,0,0,0,0,0,0,0,0,0,0,0,0,0,0,0,0,0,0,0,0,0,0,0,0,0,0,0,0,0,0,0,0,0,0,0,0,0,0,0,0,0,0,0,0,0,0,0,0,0,0,0,0,0,0,0,0,0,0,0,0],"split_type":[0,0,0,0,0,0,0,0,0,0,0,0,0,0,0,0,0,0,0,0,0,0,0,0,0,0,0,0,0,0,0,0,0,0,0,0,0,0,0,0,0,0,0,0,0,0,0,0,0,0,0,0,0,0,0,0,0,0,0,0,0,0,0,0,0,0,0,0,0,0,0,0,0,0,0,0,0,0,0,0,0,0,0,0,0,0,0,0,0,0,0,0,0,0,0,0,0,0,0,0,0,0,0,0,0,0,0,0,0,0,0,0,0,0,0,0,0,0,0,0,0,0,0,0,0],"sum_hessian":[2.9329406E5,2.1812039E5,7.517368E4,1.4538942E5,7.273096E4,2.942993E4,4.5743754E4,7.144599E4,7.394343E4,4.4356656E4,2.8374307E4,1.0182861E4,1.9247068E4,8.0842737E2,4.493533E4,3.5443227E4,3.600276E4,6.673054E4,7.2128896E3,1.1493357E4,3.28633E4,2.169869E4,6.675616E3,8.244549E3,1.9383131E3,1.8899025E4,3.4804288E2,5.739898E2,2.3443755E2,2.6253564E3,4.230997E4,2.8384256E4,7.0589717E3,1.1594816E4,2.4407947E4,3.2159473E4,3.4571066E4,6.267335E3,9.4555493E2,2.004169E3,9.489188E3,2.2566448E3,3.0606656E4,8.946307E3,1.2752383E4,3.4882659E3,3.1873503E3,6.657967E3,1.5865819E3,1.6905E3,2.4781305E2,7.717028E3,1.1181997E4,3.4564713E2,2.3957582E0,5.408372E2,3.3152615E1,9.07124E1,1.4372514E2,1.8192036E3,8.061528E2,4.87504E3,3.743493E4,6.928254E3,2.1456002E4,3.8611504E3,3.1978213E3,8.61493E3,2.9798862E3,1.1403469E4,1.3004479E4,2.6848836E4,5.310636E3,1.4714928E4,1.9856139E4,3.5321284E3,2.7352065E3,6.339683E2,3.1158664E2,1.4441714E3,5.5999756E2,5.729553E3,3.759635E3,1.2595038E3,9.9714087E2,2.4701732E4,5.9049243E3,8.38152E2,8.1081543E3,1.258141E4,1.7097313E2,3.0932988E3,3.9496722E2,1.1665797E3,2.0207706E3,2.6689863E3,3.9889802E3,1.1399559E3,4.4662607E2,1.5481371E3,1.4236295E2,1.1799455E2,1.298185E2,3.5295828E2,7.3640693E3,5.842549E3,5.3394478E3,1.4480273E1,3.3116684E2,3.0562288E1,5.102749E2,5.413773E0,2.773884E1,7.0562004E1,2.015039E1,9.8667404E1,4.5057743E1,5.1973047E2,1.2994731E3,4.478375E2,3.5831528E2,4.253761E3,6.2127856E2,3.1798298E0,3.743175E4],"tree_param":{"num_deleted":"0","num_feature":"384","num_nodes":"125","size_leaf_vector":"0"}},{"base_weights":[-1.8951327E-2,-2.7582613E-1,8.9326453E-1,-5.526184E-1,-6.794762E-2,5.728534E-1,1.115573E0,-1.3871384E-1,-6.6617256E-1,5.4642856E-1,-2.0164855E-1,7.634741E-1,1.1724602E-1,4.8257744E-1,1.1272026E0,1.6610219E-1,-5.324256E-1,-7.747531E-1,-3.7712285E-1,3.1950042E-1,8.1772065E-1,5.427085E-2,-4.2368338E-1,5.675104E-1,9.91258E-1,8.7238795E-1,-3.2809106E-1,7.9381007E-1,-2.8926557E-1,6.2671566E-1,1.1376015E0,-3.8415805E-2,7.643515E-1,-7.6517075E-1,-1.4720473E-1,-6.5359974E-1,-9.1726613E-1,-5.039762E-1,5.949751E-1,9.6780515E-1,1.5212749E-1,6.993407E-1,1.1569641E0,2.7242628E-1,-4.1898447E-1,-5.850057E-1,-4.127761E-2,2.2150569E-1,7.992592E-1,1.1633213E0,9.0934217E-1,-6.8357505E-2,9.8048204E-1,-7.582196E-1,2.199063E-1,9.352309E-1,3.022288E-1,-7.0212275E-1,7.6171494E-1,7.851863E-1,-1.4643227E0,1.009604E0,1.15473E0,2.0947064E-1,-4.427226E-1,2.8526407E-1,1.1034672E0,-7.86151E-1,2.289078E0,7.6670253E-1,-3.6390394E-1,-7.785542E-1,-3.5219425E-1,-1.0755595E0,-8.388319E-1,-2.914572E-1,-7.40991E-1,7.9051155E-1,-8.697169E-1,5.267357E-1,1.1694813E0,8.254119E-1,2.3853537E-2,-1.9233795E0,7.1763265E-1,1.1825175E0,-1.7571623E0,5.7903502E-2,7.061061E-1,-6.4930704E-4,-7.234147E-1,-5.233522E-1,-1.1481119E0,-2.1474147E-1,6.244444E-1,-2.570153E-1,7.711567E-1,1.0767164E0,4.4761652E-1,1.1667527E0,2.5257334E-1,8.074589E-1,1.0682724E0,-5.569255E-1,9.3390274E-1,1.017615E0,-7.412343E-1,8.059677E-1,-8.900563E-1,8.2502097E-1,-5.5838425E-2,-6.435819E-1,9.551432E-1,-2.2057002E0,4.120519E-1,-9.654007E-1,7.2799337E-1,1.0279486E0,-4.9978152E-1,1.080343E0,3.2284272E-1,-1.9080592E0,3.1521013E-1,1.0863072E0,6.194141E-1,-1.107901E0,1.1551008E0],"categories":[],"categories_nodes":[],"categories_segments":[],"categories_sizes":[],"default_left":[1,1,1,1,1,1,1,1,1,1,1,1,1,1,1,1,1,1,1,1,1,1,1,1,1,1,1,1,1,1,1,1,1,1,1,1,1,1,1,1,1,1,1,1,1,1,1,1,1,1,1,1,1,1,1,1,1,1,1,1,1,1,1,0,0,0,0,0,0,0,0,0,0,0,0,0,0,0,0,0,0,0,0,0,0,0,0,0,0,0,0,0,0,0,0,0,0,0,0,0,0,0,0,0,0,0,0,0,0,0,0,0,0,0,0,0,0,0,0,0,0,0,0,0,0,0,0],"id":4,"left_children":[1,3,5,7,9,11,13,15,17,19,21,23,25,27,29,31,33,35,37,39,41,43,45,47,49,51,53,55,57,59,61,63,65,67,69,71,73,75,77,79,81,83,85,87,89,91,93,95,97,99,101,103,105,107,109,111,113,115,117,119,121,123,125,-1,-1,-1,-1,-1,-1,-1,-1,-1,-1,-1,-1,-1,-1,-1,-1,-1,-1,-1,-1,-1,-1,-1,-1,-1,-1,-1,-1,-1,-1,-1,-1,-1,-1,-1,-1,-1,-1,-1,-1,-1,-1,-1,-1,-1,-1,-1,-1,-1,-1,-1,-1,-1,-1,-1,-1,-1,-1,-1,-1,-1,-1,-1,-1],"loss_changes":[6.2140777E4,1.1906085E4,4.1498047E3,4.171215E3,9.707154E3,2.072959E3,2.526914E2,2.2932168E3,2.1854746E3,1.30002E3,5.514873E3,7.50624E2,2.3685134E3,1.497311E2,1.7508594E2,1.3178347E3,7.4748706E2,8.734863E2,2.345653E3,1.2479658E3,3.855039E2,4.655056E3,3.2058477E3,7.253884E2,1.0861426E2,2.6574744E2,1.0444731E3,3.0568542E1,7.845115E1,2.2971341E2,7.137891E1,8.046288E2,4.4549548E2,3.3485645E2,6.2247235E2,1.0304004E3,2.878789E2,8.4723535E2,6.295915E2,2.0931836E2,7.896467E2,3.4361035E2,1.8726587E2,2.8711584E3,1.8117856E3,1.2682695E3,1.780758E3,9.552029E2,5.2818677E2,7.5371094E0,8.4569336E1,1.3282906E2,1.5057812E2,5.1263416E2,3.252624E2,1.1434113E1,2.8623196E1,4.9441162E1,1.7684282E1,8.723602E1,3.9246796E1,1.16448E2,2.5757812E1,0E0,0E0,0E0,0E0,0E0,0E0,0E0,0E0,0E0,0E0,0E0,0E0,0E0,0E0,0E0,0E0,0E0,0E0,0E0,0E0,0E0,0E0,0E0,0E0,0E0,0E0,0E0,0E0,0E0,0E0,0E0,0E0,0E0,0E0,0E0,0E0,0E0,0E0,0E0,0E0,0E0,0E0,0E0,0E0,0E0,0E0,0E0,0E0,0E0,0E0,0E0,0E0,0E0,0E0,0E0,0E0,0E0,0E0,0E0,0E0,0E0,0E0,0E0,0E0],"parents":[2147483647,0,0,1,1,2,2,3,3,4,4,5,5,6,6,7,7,8,8,9,9,10,10,11,11,12,12,13,13,14,14,15,15,16,16,17,17,18,18,19,19,20,20,21,21,22,22,23,23,24,24,25,25,26,26,27,27,28,28,29,29,30,30,31,31,32,32,33,33,34,34,35,35,36,36,37,37,38,38,39,39,40,40,41,41,42,42,43,43,44,44,45,45,46,46,47,47,48,48,49,49,50,50,51,51,52,52,53,53,54,54,55,55,56,56,57,57,58,58,59,59,60,60,61,61,62,62],"right_children":[2,4,6,8,10,12,14,16,18,20,22,24,26,28,30,32,34,36,38,40,42,44,46,48,50,52,54,56,58,60,62,64,66,68,70,72,74,76,78,80,82,84,86,88,90,92,94,96,98,100,102,104,106,108,110,112,114,116,118,120,122,124,126,-1,-1,-1,-1,-1,-1,-1,-1,-1,-1,-1,-1,-1,-1,-1,-1,-1,-1,-1,-1,-1,-1,-1,-1,-1,-1,-1,-1,-1,-1,-1,-1,-1,-1,-1,-1,-1,-1,-1,-1,-1,-1,-1,-1,-1,-1,-1,-1,-1,-1,-1,-1,-1,-1,-1,-1,-1,-1,-1,-1,-1,-1,-1,-1],"split_conditions":[1.5606998E-2,-5.6261286E-2,4.7253996E-2,-8.048868E-2,-3.84789E-2,1.3830321E-2,-7.443452E-2,5.6794984E-3,2.103566E-2,1.4513262E-2,-4.364847E-3,4.2796403E-2,3.679568E-2,3.4690153E-2,1.121124E-1,3.8944833E-2,-1.02403454E-1,-4.918751E-3,6.7447565E-2,-9.780915E-2,3.9602615E-2,5.989423E-3,1.5559891E-2,1.5276861E-1,-9.685722E-2,1.04433194E-1,-8.765962E-3,1.6411345E-2,6.461256E-2,8.041078E-3,6.1657406E-2,7.081423E-3,7.119E-3,7.155658E-2,-2.9769447E-2,1.651343E-2,-2.3586988E-2,4.269885E-3,4.495265E-2,-2.4729608E-2,-7.835896E-2,-1.023373E-1,1.0294075E-1,1.3705593E-2,-2.1499077E-2,5.730079E-2,2.9401347E-2,9.418807E-2,3.4449227E-2,2.776345E-1,8.634197E-3,6.649093E-2,1.0743346E-1,-3.1612746E-2,1.1466593E-3,-4.235143E-2,-1.0344354E-1,3.6500946E-2,1.4043233E-1,-3.6529526E-2,2.5123024E-2,1.05757415E-1,-1.2487079E-1,6.28412E-2,-1.3281678E-1,8.5579224E-2,3.3104017E-1,-2.3584531E-1,6.867234E-1,2.3001076E-1,-1.0917119E-1,-2.3356627E-1,-1.0565828E-1,-3.2266787E-1,-2.516496E-1,-8.743717E-2,-2.2229731E-1,2.3715347E-1,-2.6091507E-1,1.5802072E-1,3.5084438E-1,2.4762358E-1,7.1560615E-3,-5.770139E-1,2.152898E-1,3.5475528E-1,-5.271487E-1,1.7371051E-2,2.1183185E-1,-1.9479213E-4,-2.1702443E-1,-1.5700567E-1,-3.444336E-1,-6.442244E-2,1.8733333E-1,-7.710459E-2,2.3134702E-1,3.2301494E-1,1.3428496E-1,3.5002583E-1,7.5772E-2,2.4223767E-1,3.2048172E-1,-1.6707765E-1,2.8017083E-1,3.052845E-1,-2.223703E-1,2.4179031E-1,-2.6701692E-1,2.475063E-1,-1.6751528E-2,-1.9307458E-1,2.8654298E-1,-6.617101E-1,1.2361557E-1,-2.8962022E-1,2.1839802E-1,3.083846E-1,-1.4993446E-1,3.241029E-1,9.685282E-2,-5.724178E-1,9.4563045E-2,3.2589215E-1,1.8582423E-1,-3.323703E-1,3.4653026E-1],"split_indices":[1,1,1,2,6,16,7,10,20,38,40,4,2,24,0,32,1,2,5,6,32,7,50,0,6,0,20,178,1,6,1,28,51,120,59,38,14,42,18,1,2,16,52,81,13,18,48,5,5,0,44,4,24,5,5,293,28,187,2,6,13,5,52,0,0,0,0,0,0,0,0,0,0,0,0,0,0,0,0,0,0,0,0,0,0,0,0,0,0,0,0,0,0,0,0,0,0,0,0,0,0,0,0,0,0,0,0,0,0,0,0,0,0,0,0,0,0,0,0,0,0,0,0,0,0,0,0],"split_type":[0,0,0,0,0,0,0,0,0,0,0,0,0,0,0,0,0,0,0,0,0,0,0,0,0,0,0,0,0,0,0,0,0,0,0,0,0,0,0,0,0,0,0,0,0,0,0,0,0,0,0,0,0,0,0,0,0,0,0,0,0,0,0,0,0,0,0,0,0,0,0,0,0,0,0,0,0,0,0,0,0,0,0,0,0,0,0,0,0,0,0,0,0,0,0,0,0,0,0,0,0,0,0,0,0,0,0,0,0,0,0,0,0,0,0,0,0,0,0,0,0,0,0,0,0,0,0],"sum_hessian":[2.651882E5,2.069211E5,5.8267105E4,8.874912E4,1.1817198E5,2.38688E4,3.4398305E4,1.9106865E4,6.964225E4,2.111987E4,9.70521E4,1.682764E4,7.0411606E3,6.2134534E2,3.3776957E4,1.0769544E4,8.337322E3,5.062388E4,1.901837E4,1.150143E4,9.618439E3,4.508615E4,5.1965957E4,9.04751E3,7.780131E3,2.6116765E3,4.429484E3,4.4277524E2,1.7857008E2,6.887573E2,3.30882E4,8.026525E3,2.7430188E3,5.196614E3,3.1407087E3,2.7365486E4,2.3258393E4,1.6823479E4,2.194889E3,2.3590542E3,9.142376E3,7.13257E3,2.4858696E3,3.0860758E4,1.422539E4,3.6547457E4,1.5418501E4,3.629926E3,5.4175835E3,2.5050667E3,5.2750645E3,2.6919897E2,2.3424775E3,2.481414E3,1.94807E3,3.4315265E2,9.9622604E1,1.2844493E2,5.0125153E1,6.408171E2,4.794022E1,3.9123176E3,2.9175883E4,4.976092E3,3.0504333E3,1.1376456E3,1.605373E3,5.161898E3,3.4715443E1,6.014817E2,2.539227E3,1.9344291E4,8.021196E3,7.7019194E3,1.5556474E4,8.871283E3,7.9521963E3,1.936788E3,2.5810092E2,7.413404E2,1.6177137E3,1.462191E3,7.6801846E3,4.8679615E1,7.0838906E3,2.4648499E3,2.1019703E1,2.0648143E4,1.0212615E4,5.9921846E3,8.233205E3,3.2942562E4,3.6048928E3,1.2231958E4,3.1865427E3,1.9408088E3,1.6891173E3,3.0270684E3,2.390515E3,2.4953835E3,9.683093E0,3.218136E3,2.0569285E3,1.8127693E2,8.7922035E1,2.2934233E3,4.9054127E1,1.9248982E2,2.288924E3,6.0920135E2,1.3388685E3,3.8838909E0,3.3926874E2,3.3788474E0,9.624376E1,1.0874957E2,1.9695356E1,4.154284E1,8.582312E0,3.9030963E2,2.5050748E2,3.8314144E1,9.626075E0,3.268095E3,6.442227E2,4.2913795E0,2.9171592E4],"tree_param":{"num_deleted":"0","num_feature":"384","num_nodes":"127","size_leaf_vector":"0"}},{"base_weights":[-1.1907482E-2,-1.9781667E-1,8.780549E-1,-3.5344714E-1,1.0042567E-1,5.887446E-1,1.079163E0,-1.7692392E-1,-6.1839443E-1,-1.9807439E-1,3.2993656E-1,2.4504659E-1,7.8985095E-1,5.351922E-1,1.0891273E0,-2.850264E-1,3.463753E-1,-4.805048E-1,-8.3216643E-1,-4.0657204E-1,2.5010696E-1,1.4811546E-1,6.607261E-1,-7.3339716E-2,6.692378E-1,9.792026E-1,6.19585E-1,7.802494E-1,-7.158953E-1,5.8729315E-1,1.0986565E0,7.7826865E-2,-4.719618E-1,1.5330474E-1,1.0920962E0,-5.883392E-1,-1.8379836E-1,-8.814286E-1,-5.503715E-1,1.9295092E0,-4.5245507E-1,1.0533854E0,2.8885841E-2,-7.62369E-2,4.7131053E-1,7.652385E-1,1.8272673E-1,-2.67663E-1,9.261327E-1,9.186865E-1,3.9758405E-1,9.8187655E-1,-2.4312205E0,8.195808E-1,2.175699E-1,1.0203873E0,3.709835E-1,5.9722024E-1,-1.0864588E0,-2.9365042E-1,7.4446577E-1,9.8674935E-1,1.1085048E0,-1.1181952E-1,5.5323607E-1,-6.851834E-1,-2.8179586E-1,-5.5794066E-1,3.4592554E-1,6.1833805E-1,1.6590949E0,-7.431042E-1,-3.791029E-1,2.992287E-1,-3.8700682E-1,-1.0030744E0,-7.678266E-1,-6.75503E-1,6.29461E-1,1.3280886E0,2.050461E0,-4.7856186E-2,-6.505319E-1,1.1342245E0,3.9381602E-1,-1.2957342E-1,4.2123336E-1,8.473552E-1,-1.6775048E-1,5.603789E-1,-1.2455711E0,-9.2080444E-1,7.984748E-1,8.19086E-1,-5.196375E-2,4.5435616E-1,-5.467873E-1,1.1257772E0,2.0070282E-1,1.0508494E0,7.3544395E-1,-2.2322138E-1,6.797338E-1,-1.1893378E0,9.849151E-1,1.1048756E0,7.134262E-1,-3.7416986E-1,5.531493E-1,-1.3868443E0,1.0368297E0,-5.777681E-1,8.547933E-1,1.2417232E0,-6.76684E-1,8.060645E-1,-1.2658294E0,-6.159575E-1,9.1132736E-1,9.590764E-1,4.468918E-1,9.9416363E-1,-1.8862087E0,1.0275285E0,1.1122307E0],"categories":[],"categories_nodes":[],"categories_segments":[],"categories_sizes":[],"default_left":[1,1,1,1,1,1,1,1,1,1,1,1,1,1,1,1,1,1,1,1,1,1,1,1,1,1,1,1,1,1,1,1,1,1,1,1,1,1,1,1,1,1,1,1,1,1,1,1,1,1,1,1,0,1,1,1,1,1,1,1,1,1,1,0,0,0,0,0,0,0,0,0,0,0,0,0,0,0,0,0,0,0,0,0,0,0,0,0,0,0,0,0,0,0,0,0,0,0,0,0,0,0,0,0,0,0,0,0,0,0,0,0,0,0,0,0,0,0,0,0,0,0,0,0,0],"id":5,"left_children":[1,3,5,7,9,11,13,15,17,19,21,23,25,27,29,31,33,35,37,39,41,43,45,47,49,51,53,55,57,59,61,63,65,67,69,71,73,75,77,79,81,83,85,87,89,91,93,95,97,99,101,103,-1,105,107,109,111,113,115,117,119,121,123,-1,-1,-1,-1,-1,-1,-1,-1,-1,-1,-1,-1,-1,-1,-1,-1,-1,-1,-1,-1,-1,-1,-1,-1,-1,-1,-1,-1,-1,-1,-1,-1,-1,-1,-1,-1,-1,-1,-1,-1,-1,-1,-1,-1,-1,-1,-1,-1,-1,-1,-1,-1,-1,-1,-1,-1,-1,-1,-1,-1,-1,-1],"loss_changes":[4.0088965E4,9.303127E3,2.435414E3,6.1596074E3,4.7085005E3,1.186706E3,1.3329102E2,4.4715713E3,1.5519082E3,2.7917021E3,2.3367505E3,8.563212E2,3.4863525E2,1.3737326E2,1.1533594E2,4.443641E3,1.9483379E3,1.0242178E3,2.861455E2,2.1863542E3,1.6856198E3,1.8181299E3,6.8831885E2,7.038373E2,1.8384814E2,4.91416E1,4.586267E2,3.6342407E1,3.6468773E1,6.3093536E1,2.5134766E1,2.0084027E3,1.7529346E3,1.4731365E3,7.4657446E2,7.600801E2,8.379077E2,2.4208496E2,4.54417E2,2.5860962E1,1.6026077E3,1.0876416E2,4.6251828E2,1.251135E3,1.5717827E3,6.344204E2,3.6950824E2,6.1164355E2,8.520926E1,3.3529053E1,2.2839891E2,3.4975098E1,0E0,1.1460864E2,3.7692755E2,1.0735474E1,6.463435E1,1.4672276E1,2.0630005E1,2.7541153E1,2.4198868E1,4.3075195E1,5.4589844E0,0E0,0E0,0E0,0E0,0E0,0E0,0E0,0E0,0E0,0E0,0E0,0E0,0E0,0E0,0E0,0E0,0E0,0E0,0E0,0E0,0E0,0E0,0E0,0E0,0E0,0E0,0E0,0E0,0E0,0E0,0E0,0E0,0E0,0E0,0E0,0E0,0E0,0E0,0E0,0E0,0E0,0E0,0E0,0E0,0E0,0E0,0E0,0E0,0E0,0E0,0E0,0E0,0E0,0E0,0E0,0E0,0E0,0E0,0E0,0E0,0E0,0E0],"parents":[2147483647,0,0,1,1,2,2,3,3,4,4,5,5,6,6,7,7,8,8,9,9,10,10,11,11,12,12,13,13,14,14,15,15,16,16,17,17,18,18,19,19,20,20,21,21,22,22,23,23,24,24,25,25,26,26,27,27,28,28,29,29,30,30,31,31,32,32,33,33,34,34,35,35,36,36,37,37,38,38,39,39,40,40,41,41,42,42,43,43,44,44,45,45,46,46,47,47,48,48,49,49,50,50,51,51,53,53,54,54,55,55,56,56,57,57,58,58,59,59,60,60,61,61,62,62],"right_children":[2,4,6,8,10,12,14,16,18,20,22,24,26,28,30,32,34,36,38,40,42,44,46,48,50,52,54,56,58,60,62,64,66,68,70,72,74,76,78,80,82,84,86,88,90,92,94,96,98,100,102,104,-1,106,108,110,112,114,116,118,120,122,124,-1,-1,-1,-1,-1,-1,-1,-1,-1,-1,-1,-1,-1,-1,-1,-1,-1,-1,-1,-1,-1,-1,-1,-1,-1,-1,-1,-1,-1,-1,-1,-1,-1,-1,-1,-1,-1,-1,-1,-1,-1,-1,-1,-1,-1,-1,-1,-1,-1,-1,-1,-1,-1,-1,-1,-1,-1,-1,-1,-1,-1,-1],"split_conditions":[2.1777915E-2,-2.4778835E-2,5.382832E-2,3.4837625E-3,1.9120894E-2,3.8853823E-3,1.20151445E-1,3.5968527E-2,2.7002838E-2,1.8534672E-1,7.4512837E-3,4.6118097E-3,-8.303963E-3,-8.893805E-3,-7.13366E-2,-2.1567013E-2,2.5150048E-2,2.0639706E-2,2.8488982E-2,-9.356696E-2,3.8747706E-2,1.3485191E-2,2.524965E-2,2.723171E-1,-1.5994554E-2,1.4396077E-1,1.1615614E-2,-3.9271064E-2,-3.014251E-2,-2.2276312E-2,1.9411197E-1,1.6609099E-2,-8.554036E-2,-3.722526E-2,1.1025546E-2,1.3488542E-2,-1.7616078E-2,-3.5332171E-3,7.615638E-2,1.05149355E-2,-1.1979988E-2,3.2888804E-2,1.6679905E-2,-6.757215E-2,9.745605E-2,3.7496038E-2,-1.5616945E-2,-2.2078404E-2,1.5650195E-1,8.561687E-2,1.739325E-1,-1.08517855E-1,-7.293662E-1,-8.859223E-2,-1.8962694E-2,-8.421908E-2,-1.5207225E-2,2.6600333E-3,-3.1796623E-2,2.6189905E-1,2.7992758E-3,1.3884148E-1,6.285843E-2,-3.354586E-2,1.6597083E-1,-2.0555504E-1,-8.453876E-2,-1.6738221E-1,1.0377767E-1,1.8550143E-1,4.977285E-1,-2.2293128E-1,-1.1373087E-1,8.976861E-2,-1.1610205E-1,-3.0092233E-1,-2.3034799E-1,-2.0265092E-1,1.888383E-1,3.9842662E-1,6.1513835E-1,-1.4356856E-2,-1.9515957E-1,3.4026736E-1,1.1814481E-1,-3.8872026E-2,1.2637001E-1,2.5420657E-1,-5.0325144E-2,1.6811368E-1,-3.7367135E-1,-2.7624133E-1,2.3954244E-1,2.4572581E-1,-1.5589125E-2,1.3630685E-1,-1.640362E-1,3.3773318E-1,6.0210846E-2,3.1525484E-1,2.206332E-1,-6.6966414E-2,2.0392016E-1,-3.5680136E-1,2.9547453E-1,3.3146268E-1,2.1402787E-1,-1.1225096E-1,1.6594478E-1,-4.160533E-1,3.1104892E-1,-1.7333043E-1,2.5643802E-1,3.7251696E-1,-2.0300521E-1,2.4181935E-1,-3.7974885E-1,-1.8478726E-1,2.7339822E-1,2.8772295E-1,1.3406755E-1,2.982491E-1,-5.658626E-1,3.0825856E-1,3.3366922E-1],"split_indices":[1,1,1,2,4,4,0,38,6,0,44,23,34,6,7,10,114,38,48,62,2,38,34,0,12,7,22,6,12,23,0,23,1,23,94,16,42,8,4,24,12,28,80,6,27,0,5,42,2,2,0,8,0,6,25,111,101,73,75,0,178,2,1,0,0,0,0,0,0,0,0,0,0,0,0,0,0,0,0,0,0,0,0,0,0,0,0,0,0,0,0,0,0,0,0,0,0,0,0,0,0,0,0,0,0,0,0,0,0,0,0,0,0,0,0,0,0,0,0,0,0,0,0,0,0],"split_type":[0,0,0,0,0,0,0,0,0,0,0,0,0,0,0,0,0,0,0,0,0,0,0,0,0,0,0,0,0,0,0,0,0,0,0,0,0,0,0,0,0,0,0,0,0,0,0,0,0,0,0,0,0,0,0,0,0,0,0,0,0,0,0,0,0,0,0,0,0,0,0,0,0,0,0,0,0,0,0,0,0,0,0,0,0,0,0,0,0,0,0,0,0,0,0,0,0,0,0,0,0,0,0,0,0,0,0,0,0,0,0,0,0,0,0,0,0,0,0,0,0,0,0,0,0],"sum_hessian":[2.4229736E5,2.0042934E5,4.1868023E4,1.3170311E5,6.8726234E4,1.7170617E4,2.4697404E4,7.904226E4,5.2660855E4,2.987334E4,3.885289E4,6.339095E3,1.0831523E4,4.452492E2,2.4252154E4,6.550978E4,1.3532473E4,3.2014041E4,2.0646814E4,2.0388523E4,9.484816E3,2.5072846E4,1.3780046E4,3.6216277E3,2.7174673E3,5.1260854E3,5.7054375E3,3.7263544E2,7.261376E1,4.531011E2,2.3799053E4,2.2274389E4,4.3235395E4,1.0750361E4,2.7821116E3,2.347966E4,8.534382E3,1.7572701E4,3.074113E3,3.9194693E2,1.9996576E4,2.0472527E3,7.437564E3,1.4799937E4,1.0272909E4,1.1307179E4,2.4728665E3,3.0327207E3,5.889071E2,1.4153899E3,1.3020774E3,5.1227812E3,3.3043358E0,3.8093237E3,1.8961136E3,2.339005E2,1.3873495E2,1.5847054E1,5.676671E1,6.846884E1,3.846323E2,1.9331805E3,2.1865873E4,1.5923199E4,6.351189E3,2.0380906E4,2.285449E4,2.29058E3,8.459781E3,1.5168181E3,1.2652935E3,1.3495181E4,9.984479E3,2.5270664E3,6.007316E3,8.482135E3,9.090566E3,2.7797266E3,2.9438666E2,6.763233E1,3.243146E2,6.5725303E3,1.3424047E4,1.8230889E3,2.2416388E2,5.29836E3,2.139204E3,1.3334958E3,1.346644E4,9.7668955E3,5.0601337E2,2.1806862E2,1.108911E4,6.656035E2,1.807263E3,8.4536414E2,2.1873564E3,4.6137958E2,1.2752752E2,8.195547E2,5.958352E2,4.069302E2,8.951472E2,6.6135936E0,5.1161675E3,1.0304746E3,2.7788494E3,6.861263E2,1.2099874E3,1.0213795E0,2.328791E2,4.6788483E1,9.194647E1,1.0539895E1,5.3071585E0,4.612006E0,5.21547E1,5.440534E1,1.40635E1,2.2217581E2,1.6245647E2,1.9288566E3,4.3238826E0,9.7401434E2,2.0891857E4],"tree_param":{"num_deleted":"0","num_feature":"384","num_nodes":"125","size_leaf_vector":"0"}},{"base_weights":[-7.105003E-3,-1.4491184E-1,8.3621156E-1,5.27871E-2,-3.3860487E-1,5.502941E-1,1.0538329E0,-8.03242E-2,4.8783502E-1,-3.4926277E-2,-4.8377267E-1,1.8502939E-1,7.154038E-1,2.7131727E-1,1.0613198E0,-2.3330513E-1,2.606206E-1,3.3486873E-1,8.072097E-1,-1.6612221E-1,3.713673E-1,-1.3529216E-1,-5.657989E-1,-7.006097E-2,7.315503E-1,3.8865855E-1,8.158725E-1,8.7796867E-1,-2.858089E-1,4.8447075E-1,1.0681341E0,1.4468996E-1,-3.951121E-1,8.7282866E-2,8.431117E-1,1.8021238E-1,7.6048136E-1,1.0787987E0,7.069337E-1,-2.76019E-1,2.7453148E-1,4.493236E-1,-7.449442E-1,-4.2195234E-1,2.915995E-1,-6.9759464E-1,-3.4896293E-1,-2.8338334E-1,1.0440875E0,7.9278505E-1,-3.3618265E-1,1.491709E-1,7.6087356E-1,-1.2390795E0,8.253065E-1,9.246103E-1,-1.3941644E0,-1.1276381E0,3.287425E-1,5.80589E-1,-9.5032966E-1,1.0686902E0,-1.248844E0,-2.4100639E-2,5.8094275E-1,-6.07517E-1,-1.8337047E-1,-9.559648E-2,4.651285E-1,1.1457146E0,3.6137277E-1,8.7946504E-1,8.3704166E-2,5.304863E-1,9.915176E-1,-4.4861326E-1,1.0826255E0,1.6990668E-1,7.7778846E-1,-3.3837396E-1,3.3238617E-1,5.938531E-2,1.0334262E0,6.7732096E-1,1.5914457E-1,-8.585569E-1,2.7237794E-1,-5.5176E-1,5.8323777E-1,7.303528E-1,7.700853E-2,-6.175479E-1,-9.587367E-1,-4.81907E-1,-3.473629E-2,-4.4681478E-1,5.0690407E-1,1.1097916E0,2.611662E-1,5.921211E-1,9.901422E-1,-2.6311886E0,3.1676733E-1,4.3149582E-1,-5.082313E-1,-2.3271985E0,7.7572715E-1,9.4706005E-1,-1.6974446E0,9.7078747E-1,6.986454E-1,-8.327884E-2,9.909705E-1,-1.8794484E0,-3.1289482E-1,7.138093E-1,-8.104243E-1,1.9505166E-1,8.5915303E-1,-1.812829E0,7.0818946E-2,8.942666E-1,1.0757598E0,-2.379328E-1,-1.5565178E0],"categories":[],"categories_nodes":[],"categories_segments":[],"categories_sizes":[],"default_left":[1,1,1,1,1,1,1,1,1,1,1,1,1,1,1,1,1,1,1,1,1,1,1,1,1,1,1,1,1,1,1,1,1,1,1,1,1,1,1,1,1,1,1,1,1,1,1,1,1,1,1,1,1,1,1,1,0,1,1,1,1,1,1,0,0,0,0,0,0,0,0,0,0,0,0,0,0,0,0,0,0,0,0,0,0,0,0,0,0,0,0,0,0,0,0,0,0,0,0,0,0,0,0,0,0,0,0,0,0,0,0,0,0,0,0,0,0,0,0,0,0,0,0,0,0],"id":6,"left_children":[1,3,5,7,9,11,13,15,17,19,21,23,25,27,29,31,33,35,37,39,41,43,45,47,49,51,53,55,57,59,61,63,65,67,69,71,73,75,77,79,81,83,85,87,89,91,93,95,97,99,101,103,105,107,109,111,-1,113,115,117,119,121,123,-1,-1,-1,-1,-1,-1,-1,-1,-1,-1,-1,-1,-1,-1,-1,-1,-1,-1,-1,-1,-1,-1,-1,-1,-1,-1,-1,-1,-1,-1,-1,-1,-1,-1,-1,-1,-1,-1,-1,-1,-1,-1,-1,-1,-1,-1,-1,-1,-1,-1,-1,-1,-1,-1,-1,-1,-1,-1,-1,-1,-1,-1],"loss_changes":[2.5921246E4,7.3414326E3,1.9487461E3,5.494428E3,4.2691074E3,8.165586E2,1.03921875E2,3.7893777E3,1.0856836E3,1.6696228E3,1.8727666E3,5.879562E2,3.0582764E2,5.7680447E1,6.873828E1,3.0673127E3,2.2719185E3,9.8930786E2,1.952666E2,1.1466628E3,6.6567896E2,1.5279491E3,1.5154082E3,6.838401E2,8.801221E1,1.9555762E2,1.3928027E2,9.935612E0,4.6585087E1,2.9172134E1,2.3773438E1,1.1069868E3,1.5792891E3,1.1984316E3,7.518479E2,7.440488E2,2.1234302E2,1.1820068E1,2.000127E2,7.1906494E2,7.716832E2,4.7274634E2,5.79599E1,9.749822E2,4.722391E2,6.8891406E2,8.3762134E2,3.12092E2,2.3495575E1,4.9690857E1,1.1096579E2,2.4835417E2,4.1213593E1,3.4665977E1,1.3014697E2,5.4699936E0,0E0,2.2639317E1,2.3568092E1,2.078769E1,1.1938109E1,2.0507812E1,1.0727987E0,0E0,0E0,0E0,0E0,0E0,0E0,0E0,0E0,0E0,0E0,0E0,0E0,0E0,0E0,0E0,0E0,0E0,0E0,0E0,0E0,0E0,0E0,0E0,0E0,0E0,0E0,0E0,0E0,0E0,0E0,0E0,0E0,0E0,0E0,0E0,0E0,0E0,0E0,0E0,0E0,0E0,0E0,0E0,0E0,0E0,0E0,0E0,0E0,0E0,0E0,0E0,0E0,0E0,0E0,0E0,0E0,0E0,0E0,0E0,0E0,0E0,0E0],"parents":[2147483647,0,0,1,1,2,2,3,3,4,4,5,5,6,6,7,7,8,8,9,9,10,10,11,11,12,12,13,13,14,14,15,15,16,16,17,17,18,18,19,19,20,20,21,21,22,22,23,23,24,24,25,25,26,26,27,27,28,28,29,29,30,30,31,31,32,32,33,33,34,34,35,35,36,36,37,37,38,38,39,39,40,40,41,41,42,42,43,43,44,44,45,45,46,46,47,47,48,48,49,49,50,50,51,51,52,52,53,53,54,54,55,55,57,57,58,58,59,59,60,60,61,61,62,62],"right_children":[2,4,6,8,10,12,14,16,18,20,22,24,26,28,30,32,34,36,38,40,42,44,46,48,50,52,54,56,58,60,62,64,66,68,70,72,74,76,78,80,82,84,86,88,90,92,94,96,98,100,102,104,106,108,110,112,-1,114,116,118,120,122,124,-1,-1,-1,-1,-1,-1,-1,-1,-1,-1,-1,-1,-1,-1,-1,-1,-1,-1,-1,-1,-1,-1,-1,-1,-1,-1,-1,-1,-1,-1,-1,-1,-1,-1,-1,-1,-1,-1,-1,-1,-1,-1,-1,-1,-1,-1,-1,-1,-1,-1,-1,-1,-1,-1,-1,-1,-1,-1,-1,-1,-1,-1],"split_conditions":[2.5319532E-2,-1.6022349E-3,5.9649013E-2,-1.1267714E-2,-1.4812738E-2,-1.307339E-2,1.11233115E-1,1.9854698E-2,4.870305E-2,1.8794827E-2,-5.0626926E-2,1.7689425E-2,-2.3201963E-2,-3.6543593E-2,-7.695952E-2,-2.5735032E-2,2.3423687E-2,1.958187E-2,-7.6030776E-2,2.6826486E-2,5.8460936E-2,-5.9402324E-2,1.0077052E-2,3.0770946E-1,6.685996E-2,8.92661E-3,4.6929386E-2,5.4960877E-2,-1.8436971E-4,3.832708E-2,1.5118128E-1,1.6790187E-2,3.0362832E-3,1.3160665E-2,1.8160424E-1,-1.7676635E-2,1.18063195E-2,-5.945165E-2,-3.4589827E-2,3.6088638E-2,2.4913438E-2,4.0401146E-3,2.8064966E-1,7.459836E-2,-7.2887376E-2,3.9256312E-2,-1.7049944E-2,2.471785E-2,1.13137975E-1,3.8463335E-2,-2.5424011E-2,1.4205894E-2,4.5599714E-2,-2.4332613E-2,-8.886594E-3,-4.304572E-2,-4.1824934E-1,-2.5945972E-3,-5.297496E-3,2.2222242E-1,3.9455057E-3,1.7028925E-1,6.0713068E-2,-7.230192E-3,1.7428283E-1,-1.822551E-1,-5.5011142E-2,-2.8678944E-2,1.3953856E-1,3.4371442E-1,1.0841183E-1,2.638395E-1,2.511125E-2,1.5914589E-1,2.9745528E-1,-1.3458398E-1,3.2478768E-1,5.0972003E-2,2.3333655E-1,-1.0151219E-1,9.971585E-2,1.7815594E-2,3.1002787E-1,2.031963E-1,4.7743373E-2,-2.5756708E-1,8.1713386E-2,-1.6552801E-1,1.7497134E-1,2.1910585E-1,2.310256E-2,-1.8526438E-1,-2.8762102E-1,-1.4457211E-1,-1.0420888E-2,-1.3404444E-1,1.5207122E-1,3.329375E-1,7.834986E-2,1.7763634E-1,2.9704267E-1,-7.8935665E-1,9.50302E-2,1.2944876E-1,-1.524694E-1,-6.981596E-1,2.3271815E-1,2.8411803E-1,-5.092334E-1,2.9123625E-1,2.0959364E-1,-2.4983654E-2,2.9729116E-1,-5.6383455E-1,-9.386845E-2,2.141428E-1,-2.431273E-1,5.85155E-2,2.5774592E-1,-5.4384875E-1,2.1245684E-2,2.6828E-1,3.2272795E-1,-7.137984E-2,-4.6695536E-1],"split_indices":[1,34,1,1,42,4,0,38,4,81,6,25,39,6,7,10,114,48,6,51,18,1,56,0,60,25,0,150,74,178,38,39,8,48,0,2,11,44,52,44,85,78,0,5,2,34,1,23,5,25,21,34,0,11,16,126,0,148,32,0,249,0,49,0,0,0,0,0,0,0,0,0,0,0,0,0,0,0,0,0,0,0,0,0,0,0,0,0,0,0,0,0,0,0,0,0,0,0,0,0,0,0,0,0,0,0,0,0,0,0,0,0,0,0,0,0,0,0,0,0,0,0,0,0,0],"split_type":[0,0,0,0,0,0,0,0,0,0,0,0,0,0,0,0,0,0,0,0,0,0,0,0,0,0,0,0,0,0,0,0,0,0,0,0,0,0,0,0,0,0,0,0,0,0,0,0,0,0,0,0,0,0,0,0,0,0,0,0,0,0,0,0,0,0,0,0,0,0,0,0,0,0,0,0,0,0,0,0,0,0,0,0,0,0,0,0,0,0,0,0,0,0,0,0,0,0,0,0,0,0,0,0,0,0,0,0,0,0,0,0,0,0,0,0,0,0,0,0,0,0,0,0,0],"sum_hessian":[2.2304398E5,1.9171634E5,3.1327648E4,9.4877414E4,9.683892E4,1.3540829E4,1.7786818E4,7.2649664E4,2.222775E4,3.1320455E4,6.551847E4,4.2160264E3,9.324803E3,1.6891919E2,1.76179E4,5.0148496E4,2.2501166E4,1.5030741E4,7.197009E3,2.3675885E4,7.6445703E3,1.2484009E4,5.303446E4,2.8749883E3,1.3410382E3,2.1940767E3,7.1307256E3,8.058968E1,8.832951E1,2.0652875E2,1.7411371E4,1.5032165E4,3.5116332E4,1.7341756E4,5.1594106E3,1.1025712E4,4.0050288E3,1.9380924E3,5.2589165E3,1.895018E4,4.725705E3,7.146127E3,4.984437E2,7.4687275E3,5.0152812E3,3.298408E4,2.0050383E4,2.4136084E3,4.6138004E2,1.2685443E3,7.249385E1,1.3359261E3,8.581504E2,3.1990759E1,7.098735E3,7.9549774E1,1.0399095E0,3.6920254E1,5.1409264E1,1.9411989E2,1.2408868E1,1.740773E4,3.63988E0,1.0839282E4,4.192883E3,1.7529777E4,1.7586555E4,1.1686279E4,5.655476E3,3.1680383E3,1.9913724E3,1.3361913E3,9.689521E3,2.0086885E3,1.9963403E3,4.553186E0,1.9335392E3,6.133765E2,4.64554E3,1.7188943E4,1.7612369E3,3.682731E3,1.0429739E3,4.0010872E3,3.1450396E3,4.4851086E2,4.993282E1,6.614942E3,8.537857E2,1.6464802E3,3.368801E3,2.5248215E4,7.7358613E3,1.408902E4,5.961363E3,2.000367E3,4.1324133E2,4.2527286E2,3.610716E1,6.309862E2,6.375581E2,1.5385786E1,5.7108067E1,9.348104E2,4.0111575E2,3.3627162E0,8.5478766E2,5.3600793E0,2.663068E1,3.3008098E3,3.7979253E3,4.8983192E0,7.465145E1,1.8522074E1,1.8398178E1,3.8700813E1,1.2708447E1,8.213872E1,1.1198116E2,6.3067083E0,6.1021595E0,6.8303674E2,1.6724693E4,1.263098E0,2.376782E0],"tree_param":{"num_deleted":"0","num_feature":"384","num_nodes":"125","size_leaf_vector":"0"}},{"base_weights":[-2.9807503E-3,-9.398977E-2,8.86854E-1,7.179272E-2,-2.678912E-1,5.839812E-1,1.0306958E0,-1.6518348E-1,2.545197E-1,-8.9551404E-2,-4.563056E-1,7.680137E-1,2.3153056E-1,3.5767156E-1,1.0410656E0,-3.5202676E-1,5.6842566E-2,1.01663426E-1,6.238691E-1,3.6942285E-1,-2.2411281E-1,-1.8611127E-1,-6.1272395E-1,3.6437547E-1,8.935813E-1,6.1464554E-1,-7.618599E-2,-2.026651E-1,9.4033027E-1,4.6349505E-1,1.0479819E0,-4.596343E-1,1.704588E-1,-1.6374454E-1,4.2177233E-1,4.6686348E-1,-4.5692947E-2,6.6929156E-1,-3.1355196E-1,6.7638177E-1,3.4420982E-2,-9.598081E-1,-1.6256288E-1,-3.1359485E-1,5.5930805E-1,-7.713133E-1,-4.6824884E-1,-1.0702372E0,8.193011E-1,9.847576E-1,7.608525E-1,9.2692167E-1,3.513758E-1,4.547709E-1,-3.3656943E-1,-1.4373904E0,2.5691548E-1,-1.2578787E0,9.950411E-1,-3.4990716E-1,6.5262043E-1,1.04875E0,-1.1197377E0,-1.4505236E-1,-5.9843737E-1,3.3317093E-2,1.1537523E0,8.818109E-1,-2.4088825E-1,1.9620752E-1,6.494749E-1,2.9366636E-1,8.7695736E-1,-3.4168172E-1,1.4474174E-1,5.3262526E-1,9.364875E-1,2.36234E-1,-7.5579524E-1,1.0756963E0,3.7869182E-1,-6.7652804E-1,1.9787598E-1,-7.5491977E-1,-1.192294E0,-2.6525342E-1,2.7286837E-1,2.7440697E-1,-4.2675433E-1,8.76623E-2,9.176024E-1,-7.9676455E-1,6.4789027E-1,-1.3814664E-1,-5.671498E-1,1.0282766E0,-1.442732E0,1.930925E-1,9.613557E-1,9.967679E-1,2.6713306E-1,2.1655051E-1,8.293168E-1,-7.193116E-1,9.593307E-1,-4.712825E-1,7.062408E-1,-5.4955084E-2,6.474704E-1,2.6271759E-2,-7.4659556E-1,-3.998928E-2,-1.9432943E0,7.244689E-1,-3.9783496E-1,1.0343204E0,8.817926E-2,1.28677E-1,-1.7930269E0,8.0839586E-1,3.200214E-2,1.0495152E0,-7.783238E-2,-1.5620683E0,2.5459385E-1],"categories":[],"categories_nodes":[],"categories_segments":[],"categories_sizes":[],"default_left":[1,1,1,1,1,1,1,1,1,1,1,1,1,1,1,1,1,1,1,1,1,1,1,1,1,1,1,1,1,1,1,1,1,1,1,1,1,1,1,1,1,1,1,1,1,1,1,1,1,1,1,1,1,1,1,1,1,0,1,1,1,1,1,0,0,0,0,0,0,0,0,0,0,0,0,0,0,0,0,0,0,0,0,0,0,0,0,0,0,0,0,0,0,0,0,0,0,0,0,0,0,0,0,0,0,0,0,0,0,0,0,0,0,0,0,0,0,0,0,0,0,0,0,0,0],"id":7,"left_children":[1,3,5,7,9,11,13,15,17,19,21,23,25,27,29,31,33,35,37,39,41,43,45,47,49,51,53,55,57,59,61,63,65,67,69,71,73,75,77,79,81,83,85,87,89,91,93,95,97,99,101,103,105,107,109,111,113,-1,115,117,119,121,123,-1,-1,-1,-1,-1,-1,-1,-1,-1,-1,-1,-1,-1,-1,-1,-1,-1,-1,-1,-1,-1,-1,-1,-1,-1,-1,-1,-1,-1,-1,-1,-1,-1,-1,-1,-1,-1,-1,-1,-1,-1,-1,-1,-1,-1,-1,-1,-1,-1,-1,-1,-1,-1,-1,-1,-1,-1,-1,-1,-1,-1,-1],"loss_changes":[1.6898865E4,5.4577866E3,8.4291504E2,4.1967847E3,3.10452E3,4.0435767E2,9.123535E1,1.7504833E3,3.0894578E3,2.9316313E3,1.8986582E3,2.0732373E2,2.5243732E2,6.57154E1,5.1151367E1,1.2883591E3,1.5523607E3,2.0829744E3,6.822539E2,1.1066122E3,1.6619651E3,1.5656838E3,6.51584E2,6.3641595E2,3.7058594E1,7.808252E1,1.6441914E2,5.8891766E1,1.3105804E1,2.4034782E1,2.244043E1,8.2957666E2,5.277565E2,9.696669E2,3.7302002E2,7.901199E2,1.554599E3,5.5740186E2,1.8033392E2,6.671538E2,5.982348E2,1.3407544E2,1.51471E3,9.362219E2,4.0655902E2,4.9041504E2,4.861123E2,1.8508932E2,6.563367E1,1.566626E1,4.739264E1,2.3933044E1,1.5186783E2,3.847837E1,1.18709114E2,1.9805996E1,2.3555788E1,0E0,3.354454E0,2.0843224E1,1.2146553E1,1.1088867E1,3.4419498E0,0E0,0E0,0E0,0E0,0E0,0E0,0E0,0E0,0E0,0E0,0E0,0E0,0E0,0E0,0E0,0E0,0E0,0E0,0E0,0E0,0E0,0E0,0E0,0E0,0E0,0E0,0E0,0E0,0E0,0E0,0E0,0E0,0E0,0E0,0E0,0E0,0E0,0E0,0E0,0E0,0E0,0E0,0E0,0E0,0E0,0E0,0E0,0E0,0E0,0E0,0E0,0E0,0E0,0E0,0E0,0E0,0E0,0E0,0E0,0E0,0E0,0E0],"parents":[2147483647,0,0,1,1,2,2,3,3,4,4,5,5,6,6,7,7,8,8,9,9,10,10,11,11,12,12,13,13,14,14,15,15,16,16,17,17,18,18,19,19,20,20,21,21,22,22,23,23,24,24,25,25,26,26,27,27,28,28,29,29,30,30,31,31,32,32,33,33,34,34,35,35,36,36,37,37,38,38,39,39,40,40,41,41,42,42,43,43,44,44,45,45,46,46,47,47,48,48,49,49,50,50,51,51,52,52,53,53,54,54,55,55,56,56,58,58,59,59,60,60,61,61,62,62],"right_children":[2,4,6,8,10,12,14,16,18,20,22,24,26,28,30,32,34,36,38,40,42,44,46,48,50,52,54,56,58,60,62,64,66,68,70,72,74,76,78,80,82,84,86,88,90,92,94,96,98,100,102,104,106,108,110,112,114,-1,116,118,120,122,124,-1,-1,-1,-1,-1,-1,-1,-1,-1,-1,-1,-1,-1,-1,-1,-1,-1,-1,-1,-1,-1,-1,-1,-1,-1,-1,-1,-1,-1,-1,-1,-1,-1,-1,-1,-1,-1,-1,-1,-1,-1,-1,-1,-1,-1,-1,-1,-1,-1,-1,-1,-1,-1,-1,-1,-1,-1,-1,-1,-1,-1,-1],"split_conditions":[3.6981083E-2,-8.7737537E-4,6.271072E-2,-3.2991022E-3,-7.888174E-5,7.60468E-2,1.2873614E-1,1.3813344E-2,1.6532674E-2,-2.9001016E-2,-1.6430877E-2,1.3414136E-1,7.0718816E-4,4.72058E-2,-7.695952E-2,6.843461E-2,8.071722E-3,-2.0152058E-2,6.201149E-2,-7.7523375E-3,-6.507337E-2,3.0549996E-2,2.4246639E-3,3.743232E-2,-3.8778526E-3,8.009699E-2,-2.8589133E-2,-3.121797E-3,-1.0270345E-1,-2.1341119E-2,1.3485841E-1,-1.1694489E-2,5.5761583E-2,-1.0509132E-1,4.389522E-3,1.945899E-2,-1.4554953E-2,4.180132E-2,3.2721795E-2,-3.1542797E-3,-7.106207E-2,3.0196331E-2,2.3054477E-2,-2.6554722E-2,7.949086E-3,6.74893E-2,-1.7809331E-2,-6.1224002E-2,6.327836E-2,1.6729212E-1,-3.732074E-2,6.313204E-2,8.236019E-3,6.9072368E-3,3.108186E-3,-9.902377E-3,-1.987559E-3,-3.7736362E-1,4.5740537E-2,1.3189498E-2,4.1288506E-2,1.3011992E-1,-8.790667E-2,-4.351571E-2,-1.7953122E-1,9.995128E-3,3.4612572E-1,2.645433E-1,-7.226648E-2,5.8862258E-2,1.9484249E-1,8.809991E-2,2.630872E-1,-1.0250452E-1,4.3422524E-2,1.5978758E-1,2.8094625E-1,7.08702E-2,-2.2673859E-1,3.227089E-1,1.1360755E-1,-2.0295842E-1,5.9362795E-2,-2.2647594E-1,-3.5768822E-1,-7.957603E-2,8.186051E-2,8.232209E-2,-1.280263E-1,2.6298692E-2,2.7528074E-1,-2.3902938E-1,1.943671E-1,-4.1443992E-2,-1.7014495E-1,3.0848297E-1,-4.328196E-1,5.792775E-2,2.8840673E-1,2.9903036E-1,8.013992E-2,6.496516E-2,2.4879505E-1,-2.1579349E-1,2.877992E-1,-1.4138477E-1,2.1187223E-1,-1.6486526E-2,1.9424114E-1,7.881528E-3,-2.2397868E-1,-1.1996785E-2,-5.829883E-1,2.1734068E-1,-1.1935049E-1,3.1029612E-1,2.645378E-2,3.86031E-2,-5.379081E-1,2.4251877E-1,9.600642E-3,3.148546E-1,-2.3349714E-2,-4.686205E-1,7.637816E-2],"split_indices":[1,6,1,38,40,5,0,4,48,34,10,0,45,4,7,5,25,42,24,2,8,44,8,4,28,2,12,5,46,155,38,28,32,6,64,114,4,48,16,49,1,18,81,12,49,48,78,37,4,2,39,0,25,15,34,35,281,0,284,376,45,24,58,0,0,0,0,0,0,0,0,0,0,0,0,0,0,0,0,0,0,0,0,0,0,0,0,0,0,0,0,0,0,0,0,0,0,0,0,0,0,0,0,0,0,0,0,0,0,0,0,0,0,0,0,0,0,0,0,0,0,0,0,0,0],"split_type":[0,0,0,0,0,0,0,0,0,0,0,0,0,0,0,0,0,0,0,0,0,0,0,0,0,0,0,0,0,0,0,0,0,0,0,0,0,0,0,0,0,0,0,0,0,0,0,0,0,0,0,0,0,0,0,0,0,0,0,0,0,0,0,0,0,0,0,0,0,0,0,0,0,0,0,0,0,0,0,0,0,0,0,0,0,0,0,0,0,0,0,0,0,0,0,0,0,0,0,0,0,0,0,0,0,0,0,0,0,0,0,0,0,0,0,0,0,0,0,0,0,0,0,0,0],"sum_hessian":[2.0866977E5,1.8930884E5,1.9360916E4,9.69171E4,9.239174E4,6.2358315E3,1.3125085E4,4.2195027E4,5.472208E4,4.7465613E4,4.492613E4,4.0959485E3,2.139883E3,1.996978E2,1.2925387E4,2.2912613E4,1.9282412E4,3.870513E4,1.6016949E4,1.0760607E4,3.6705004E4,1.6473053E4,2.8453076E4,9.7279425E2,3.1231543E3,9.5272217E2,1.187161E3,1.0213135E2,9.756645E1,1.5375296E2,1.2771634E4,1.8999688E4,3.9129248E3,1.2018317E4,7.2640957E3,1.112683E4,2.75783E4,1.5276993E4,7.3995593E2,5.6148013E3,5.145806E3,2.8326194E3,3.3872387E4,1.4067731E4,2.4053215E3,1.3561915E4,1.4891162E4,2.3388452E2,7.389097E2,1.8475702E3,1.2755841E3,4.3464697E2,5.180752E2,3.9037903E2,7.967819E2,2.7126019E1,7.5005325E1,1.835294E0,9.5731155E1,2.8844896E1,1.24908066E2,1.2767626E4,4.0077524E0,5.817348E3,1.318234E4,3.4348887E3,4.7803616E2,8.250945E2,1.1193223E4,3.6501133E3,3.6139824E3,7.824137E3,3.3026929E3,1.0796588E4,1.6781713E4,1.0109266E4,5.1677275E3,3.300775E2,4.0987842E2,2.3969597E3,3.2178418E3,9.6133435E2,4.1844717E3,1.5079338E3,1.3246855E3,2.7408785E4,6.4636E3,2.270142E3,1.179759E4,1.0389412E3,1.3663802E3,1.3323418E4,2.3849644E2,3.4335117E3,1.145765E4,3.4991783E1,1.9889275E2,1.3706322E2,6.018465E2,1.8167754E3,3.0794819E1,1.429859E2,1.1325981E3,7.9823933E0,4.2666458E2,1.5603117E2,3.62044E2,1.0729051E2,2.8308853E2,4.2321E2,3.7357193E2,7.4969864E0,1.9629032E1,4.3695877E1,3.1309448E1,9.162213E1,4.1090236E0,2.2345316E1,6.49958E0,9.960468E1,2.5303381E1,1.2759028E4,8.598306E0,2.9285817E0,1.0791707E0],"tree_param":{"num_deleted":"0","num_feature":"384","num_nodes":"125","size_leaf_vector":"0"}},{"base_weights":[-1.3575852E-3,-6.863941E-2,8.6572367E-1,-1.6530506E-1,2.0037918E-1,5.653843E-1,1.0267888E0,-5.8692742E-2,-3.9966923E-1,3.2545552E-1,-1.4527683E-1,2.5087497E-1,8.048426E-1,1.0362581E0,5.2701366E-1,-3.284684E-1,6.1490204E-2,-4.2261446E-1,7.665075E-1,1.9935513E-1,6.8855244E-1,2.4517332E-1,-3.5618046E-1,-2.1784079E-1,4.968348E-1,8.8719296E-1,5.112256E-1,3.4507483E-1,1.0379575E0,9.077E-2,9.70149E-1,-4.476312E-1,8.301907E-2,-7.1717334E-1,1.2011576E-1,-6.0850807E-2,-4.909812E-1,8.6105466E-2,1.100297E0,-1.3450518E-1,3.7576234E-1,4.56705E-1,1.1846203E0,-4.2329976E-1,5.6554174E-1,-3.467028E-2,-5.5230707E-1,7.048302E-1,-4.3313468E-1,7.454172E-1,2.6826686E-1,-7.295463E-2,8.992674E-1,1.2873605E-1,8.3241075E-1,-1.2564819E0,6.5101546E-1,6.976357E-1,1.0403154E0,-1.2151117E0,3.4118095E-1,1.0042192E0,-9.5877504E-1,-6.7325085E-1,-3.01797E-1,5.155114E-1,-1.9829969E-1,6.994972E-1,-7.938378E-1,-2.148832E-1,2.439457E-1,2.668141E-1,-3.4018964E-1,-6.364382E-1,-3.1663457E-1,-9.063565E-2,1.4169868E0,3.6845505E-1,1.3109775E0,1.606269E-1,-3.1457725E-1,-1.9024777E-1,4.840746E-1,-9.5261526E-1,5.373887E-1,7.138704E-1,1.3189687E0,-4.9709827E-1,7.536335E-1,1.025045E0,3.1261462E-1,-2.8130656E-1,3.946972E-1,-3.2663798E-1,-8.7093276E-1,-3.1346515E-1,8.413926E-1,2.274636E-1,-6.393247E-1,-4.0154833E-1,7.8696E-1,-2.14514E-1,5.567685E-1,-1.0932562E0,9.2682266E-1,9.091984E-1,4.0837448E-2,-8.117979E-1,5.286424E-1,5.867792E-1,1.020214E0,-1.9549829E0,-1.7317064E-1,9.1441673E-1,-7.093296E-1,7.846906E-1,-2.2224789E0,1.0405349E0,-3.6764628E-1,-4.7161388E-1,-2.824379E0,-2.435228E-1,7.6342726E-1,1.0387838E0,-2.2113732E-1],"categories":[],"categories_nodes":[],"categories_segments":[],"categories_sizes":[],"default_left":[1,1,1,1,1,1,1,1,1,1,1,1,1,1,1,1,1,1,1,1,1,1,1,1,1,1,1,1,1,1,1,1,1,1,1,1,1,1,1,1,1,1,1,1,1,1,1,1,1,1,1,1,1,1,1,1,1,1,1,1,1,1,0,0,0,0,0,0,0,0,0,0,0,0,0,0,0,0,0,0,0,0,0,0,0,0,0,0,0,0,0,0,0,0,0,0,0,0,0,0,0,0,0,0,0,0,0,0,0,0,0,0,0,0,0,0,0,0,0,0,0,0,0,0,0],"id":8,"left_children":[1,3,5,7,9,11,13,15,17,19,21,23,25,27,29,31,33,35,37,39,41,43,45,47,49,51,53,55,57,59,61,63,65,67,69,71,73,75,77,79,81,83,85,87,89,91,93,95,97,99,101,103,105,107,109,111,113,115,117,119,121,123,-1,-1,-1,-1,-1,-1,-1,-1,-1,-1,-1,-1,-1,-1,-1,-1,-1,-1,-1,-1,-1,-1,-1,-1,-1,-1,-1,-1,-1,-1,-1,-1,-1,-1,-1,-1,-1,-1,-1,-1,-1,-1,-1,-1,-1,-1,-1,-1,-1,-1,-1,-1,-1,-1,-1,-1,-1,-1,-1,-1,-1,-1,-1],"loss_changes":[1.1500028E4,4.757107E3,6.860742E2,3.3624734E3,2.0906655E3,3.7313562E2,4.317383E1,2.9990522E3,1.126227E3,1.6256665E3,1.0581942E3,2.4731018E2,6.7586426E1,1.0291016E1,3.351366E1,1.3978843E3,2.9212932E3,1.0205781E3,1.8438068E2,1.5523379E3,1.0521133E3,9.6545557E2,5.2608057E2,1.4703595E2,7.972061E1,2.5527222E1,7.590233E1,1.2446857E1,6.5302734E0,2.9417997E1,6.622841E0,7.271577E2,7.79087E2,4.872019E2,2.4687917E3,6.005326E2,8.7995605E2,6.3266117E1,8.352478E1,4.8434247E2,1.057314E3,7.099446E2,1.8338696E2,1.272518E2,3.538344E2,3.3498444E2,3.723247E2,1.975013E1,8.180637E1,3.2394653E1,1.0240424E2,2.9780357E1,1.845398E1,1.0709477E2,1.4907043E1,2.8000998E0,8.024732E0,1.8333235E1,3.15625E0,1.6005337E1,1.8752789E1,3.8348236E0,0E0,0E0,0E0,0E0,0E0,0E0,0E0,0E0,0E0,0E0,0E0,0E0,0E0,0E0,0E0,0E0,0E0,0E0,0E0,0E0,0E0,0E0,0E0,0E0,0E0,0E0,0E0,0E0,0E0,0E0,0E0,0E0,0E0,0E0,0E0,0E0,0E0,0E0,0E0,0E0,0E0,0E0,0E0,0E0,0E0,0E0,0E0,0E0,0E0,0E0,0E0,0E0,0E0,0E0,0E0,0E0,0E0,0E0,0E0,0E0,0E0,0E0,0E0],"parents":[2147483647,0,0,1,1,2,2,3,3,4,4,5,5,6,6,7,7,8,8,9,9,10,10,11,11,12,12,13,13,14,14,15,15,16,16,17,17,18,18,19,19,20,20,21,21,22,22,23,23,24,24,25,25,26,26,27,27,28,28,29,29,30,30,31,31,32,32,33,33,34,34,35,35,36,36,37,37,38,38,39,39,40,40,41,41,42,42,43,43,44,44,45,45,46,46,47,47,48,48,49,49,50,50,51,51,52,52,53,53,54,54,55,55,56,56,57,57,58,58,59,59,60,60,61,61],"right_children":[2,4,6,8,10,12,14,16,18,20,22,24,26,28,30,32,34,36,38,40,42,44,46,48,50,52,54,56,58,60,62,64,66,68,70,72,74,76,78,80,82,84,86,88,90,92,94,96,98,100,102,104,106,108,110,112,114,116,118,120,122,124,-1,-1,-1,-1,-1,-1,-1,-1,-1,-1,-1,-1,-1,-1,-1,-1,-1,-1,-1,-1,-1,-1,-1,-1,-1,-1,-1,-1,-1,-1,-1,-1,-1,-1,-1,-1,-1,-1,-1,-1,-1,-1,-1,-1,-1,-1,-1,-1,-1,-1,-1,-1,-1,-1,-1,-1,-1,-1,-1,-1,-1,-1,-1],"split_conditions":[4.0221795E-2,2.219262E-2,2.618515E-1,1.4068507E-2,2.6957564E-2,1.1063566E-2,1.7195171E-1,-6.2242795E-2,6.788778E-2,4.6885427E-2,-4.199367E-2,-1.1400882E-2,2.0986697E-2,-9.313345E-2,3.300693E-1,4.6534173E-2,5.3231724E-2,-3.8392074E-2,5.9224465E-3,-1.1973601E-2,2.1271147E-2,-1.0921712E-1,-3.1356912E-3,-3.1665117E-2,-2.5752396E-3,7.124331E-2,6.665143E-2,-2.32453E-2,-1.3506198E-1,-2.170774E-2,3.485826E-2,-1.2084551E-2,-3.7000217E-2,-2.6735485E-2,-7.8055607E-3,2.5179149E-3,4.9826214E-3,5.065356E-2,1.2452748E-2,-7.764945E-3,-9.316419E-2,-6.578924E-2,-2.344086E-2,6.3108966E-2,-1.5182847E-2,2.3738989E-3,-1.3603051E-2,-5.6452915E-2,-1.42175015E-2,8.60101E-2,1.3210615E-2,5.4232657E-2,1.452631E-1,-1.744603E-2,1.1999206E-1,-7.174742E-2,1.8724594E-2,5.4915108E-2,6.7518614E-2,1.6883515E-2,5.106967E-3,3.1060304E-2,-2.8763252E-1,-2.0197527E-1,-9.0539105E-2,1.5465343E-1,-5.948991E-2,2.0984918E-1,-2.3815134E-1,-6.4464964E-2,7.3183715E-2,8.004424E-2,-1.020569E-1,-1.9093147E-1,-9.499037E-2,-2.7190696E-2,4.2509606E-1,1.1053652E-1,3.9329326E-1,4.818807E-2,-9.437318E-2,-5.7074334E-2,1.4522238E-1,-2.857846E-1,1.6121662E-1,2.1416113E-1,3.9569062E-1,-1.4912948E-1,2.2609006E-1,3.0751354E-1,9.378439E-2,-8.4391974E-2,1.18409164E-1,-9.79914E-2,-2.6127985E-1,-9.403955E-2,2.5241777E-1,6.8239085E-2,-1.9179742E-1,-1.20464504E-1,2.3608801E-1,-6.43542E-2,1.6703054E-1,-3.2797688E-1,2.7804682E-1,2.7275953E-1,1.2251235E-2,-2.4353938E-1,1.5859273E-1,1.7603377E-1,3.060642E-1,-5.8649486E-1,-5.1951196E-2,2.7432504E-1,-2.127989E-1,2.3540719E-1,-6.667437E-1,3.1216046E-1,-1.1029389E-1,-1.4148417E-1,-8.473137E-1,-7.305684E-2,2.2902818E-1,3.1163514E-1,-6.63412E-2],"split_indices":[1,23,0,34,6,4,2,1,48,5,3,23,28,7,0,5,0,12,49,11,25,1,10,59,59,0,4,204,10,25,213,11,6,11,4,10,56,11,27,9,1,16,27,39,59,39,7,33,70,0,25,4,2,101,4,4,310,183,355,113,39,325,0,0,0,0,0,0,0,0,0,0,0,0,0,0,0,0,0,0,0,0,0,0,0,0,0,0,0,0,0,0,0,0,0,0,0,0,0,0,0,0,0,0,0,0,0,0,0,0,0,0,0,0,0,0,0,0,0,0,0,0,0,0,0],"split_type":[0,0,0,0,0,0,0,0,0,0,0,0,0,0,0,0,0,0,0,0,0,0,0,0,0,0,0,0,0,0,0,0,0,0,0,0,0,0,0,0,0,0,0,0,0,0,0,0,0,0,0,0,0,0,0,0,0,0,0,0,0,0,0,0,0,0,0,0,0,0,0,0,0,0,0,0,0,0,0,0,0,0,0,0,0,0,0,0,0,0,0,0,0,0,0,0,0,0,0,0,0,0,0,0,0,0,0,0,0,0,0,0,0,0,0,0,0,0,0,0,0,0,0,0,0],"sum_hessian":[1.9712281E5,1.829292E5,1.419361E4,1.3457364E5,4.8355562E4,4.9562217E3,9.237389E3,9.249768E4,4.207597E4,3.550725E4,1.28483125E4,2.1432634E3,2.8129583E3,9.06457E3,1.7281848E2,2.8506705E4,6.3990973E4,4.12647E4,8.1126965E2,2.6355695E4,9.151554E3,4.5060356E3,8.342277E3,7.376562E2,1.4056073E3,2.1952402E3,6.17718E2,2.2733292E1,9.041837E3,8.7693565E1,8.5124916E1,2.2105172E4,6.4015327E3,4.479752E3,5.951122E4,6.5590874E3,3.4705613E4,2.6741806E2,5.4385156E2,9.1116455E3,1.724405E4,6.2380117E3,2.9135417E3,1.4597775E3,3.046258E3,3.1612383E3,5.1810386E3,1.3912848E2,5.985277E2,6.7224084E2,7.333664E2,2.7200987E1,2.1680393E3,2.8259048E2,3.351275E2,3.1478395E0,1.9585451E1,6.425807E1,8.977579E3,1.3490219E1,7.420335E1,8.411854E1,1.0063796E0,8.677156E3,1.3428017E4,2.522568E3,3.8789646E3,2.2956328E2,4.250189E3,1.6060846E4,4.3450375E4,3.0184663E3,3.540621E3,1.8918936E4,1.5786676E4,2.3689085E2,3.052722E1,1.2218072E2,4.2167087E2,3.4527734E3,5.6588726E3,2.7696836E3,1.4474367E4,3.37203E2,5.9008086E3,6.482878E2,2.265254E3,1.3741879E3,8.558955E1,1.080399E3,1.9658591E3,2.0080968E3,1.1531416E3,3.0341228E3,2.1469158E3,1.6298807E1,1.22829666E2,1.4235214E2,4.5617554E2,2.3194433E1,6.4904645E2,2.744149E2,4.5895154E2,1.3416036E1,1.3784952E1,2.143186E3,2.485329E1,8.400063E1,1.9858984E2,1.4699467E2,1.8813284E2,1.4246273E0,1.7232122E0,1.6682964E1,2.902488E0,6.3107967E1,1.150104E0,8.976441E3,1.1378024E0,1.0111612E1,3.3786066E0,3.1293322E1,4.2910027E1,8.1958916E1,2.15962E0],"tree_param":{"num_deleted":"0","num_feature":"384","num_nodes":"125","size_leaf_vector":"0"}},{"base_weights":[-5.4735533E-4,-1.3910778E-1,3.0373758E-1,-2.5699311E-1,8.3992064E-2,1.7877018E-1,9.139954E-1,-3.1634223E-1,1.7595066E-1,3.674366E-4,7.990081E-1,-2.0952996E-2,4.8056343E-1,1.0287473E0,2.5976762E-1,-6.316343E-2,-4.149316E-1,3.3121926E-1,-4.4209257E-1,4.4094432E-2,-1.0275724E0,3.6082792E-1,1.0960575E0,9.182064E-1,-9.562067E-2,7.7484435E-1,3.7978464E-1,1.0450361E0,7.589242E-1,-9.1493465E-2,6.184284E-1,-4.4427833E-1,9.647754E-2,-5.423707E-1,-1.9731101E-1,1.402069E-1,7.979413E-1,-5.431826E-1,3.8319993E-1,1.800388E-1,-1.9997099E-1,-1.1884652E0,-2.0853567E-1,7.250008E-1,8.054452E-2,5.375559E-1,1.3420489E0,5.0784343E-1,1.0454981E0,-2.3622286E-1,3.8418606E-1,9.2465746E-1,6.274185E-1,6.2717277E-1,2.4764216E-1,1.2339721E0,1.0324824E0,1.1138268E0,5.781925E-1,-2.3932111E-1,1.0170752E0,7.996959E-1,2.5976968E-1,-1.4803211E-1,-5.7900506E-1,-1.878201E-1,3.2276556E-1,-2.715681E-1,-5.9990853E-1,-3.4253168E-1,1.1002212E-1,2.9881033E-1,-3.0505747E-1,2.1827024E-1,1.0041363E0,-3.3101147E-1,-8.2665265E-1,-2.233939E-1,1.0480893E0,2.1644507E-1,-9.875012E-1,5.79594E-2,-3.5097933E-1,1.0656161E0,-1.1919773E0,-1.0024494E0,2.134582E-1,9.150676E-1,-2.1548996E-2,-6.0114566E-2,9.9733096E-1,2.4024488E-1,9.935791E-1,-1.7184395E0,1.3718796E0,6.78811E-1,-5.029986E-1,-2.3484716E-1,1.0494024E0,6.3074434E-1,-3.0207184E-1,5.71932E-1,-8.348967E-2,9.141177E-1,2.5494626E0,7.217408E-1,3.197947E-1,-3.5951212E-1,6.7471296E-1,7.9124725E-1,1.5821204E-1,1.4028451E0,7.273836E-1,8.129812E-1,1.0401353E0,1.1644818E0,1.4326167E-1,-8.3810836E-1,6.2688154E-1,2.0527701E-1,-5.107461E-1,1.1220013E0,-6.7677265E-1,8.73176E-1,-3.237577E-1,4.9399588E-1,-2.531487E-1],"categories":[],"categories_nodes":[],"categories_segments":[],"categories_sizes":[],"default_left":[1,1,1,1,1,1,1,1,1,1,1,1,1,1,1,1,1,1,1,1,1,1,1,1,1,1,1,1,1,1,1,1,1,1,1,1,1,1,1,1,1,1,1,1,1,1,1,1,1,1,1,1,1,1,1,1,1,1,1,1,1,1,1,0,0,0,0,0,0,0,0,0,0,0,0,0,0,0,0,0,0,0,0,0,0,0,0,0,0,0,0,0,0,0,0,0,0,0,0,0,0,0,0,0,0,0,0,0,0,0,0,0,0,0,0,0,0,0,0,0,0,0,0,0,0,0,0],"id":9,"left_children":[1,3,5,7,9,11,13,15,17,19,21,23,25,27,29,31,33,35,37,39,41,43,45,47,49,51,53,55,57,59,61,63,65,67,69,71,73,75,77,79,81,83,85,87,89,91,93,95,97,99,101,103,105,107,109,111,113,115,117,119,121,123,125,-1,-1,-1,-1,-1,-1,-1,-1,-1,-1,-1,-1,-1,-1,-1,-1,-1,-1,-1,-1,-1,-1,-1,-1,-1,-1,-1,-1,-1,-1,-1,-1,-1,-1,-1,-1,-1,-1,-1,-1,-1,-1,-1,-1,-1,-1,-1,-1,-1,-1,-1,-1,-1,-1,-1,-1,-1,-1,-1,-1,-1,-1,-1,-1],"loss_changes":[7.9211816E3,3.395162E3,4.4828228E3,2.1703037E3,2.6685798E3,2.94104E3,7.498203E2,1.8540654E3,9.7734814E2,1.7961138E3,6.078718E2,2.0591616E3,5.7599023E2,3.6566406E1,1.8806268E2,1.2667382E3,1.4825684E3,7.254864E2,1.7082352E2,1.2717568E3,2.1460767E2,1.9281247E2,3.818484E2,1.1243713E2,1.8351422E3,1.0887891E2,4.7308862E2,1.7732422E1,3.0629852E1,1.2393811E2,4.780478E1,2.4523499E2,9.4409045E2,5.2518555E2,8.8133777E2,4.0804022E2,2.8227405E2,1.0932654E2,9.047575E1,1.0466025E3,5.341038E2,1.20563965E1,9.030691E1,1.16610565E2,1.3789798E2,1.1542886E2,1.7878735E2,8.91649E1,8.493042E0,1.2011897E3,5.4135785E2,3.972827E1,7.23374E1,2.3663965E2,4.5869153E2,4.1253845E1,1.1787109E1,7.8683014E0,2.294629E1,8.057112E1,1.6577316E1,4.0740173E1,3.00897E1,0E0,0E0,0E0,0E0,0E0,0E0,0E0,0E0,0E0,0E0,0E0,0E0,0E0,0E0,0E0,0E0,0E0,0E0,0E0,0E0,0E0,0E0,0E0,0E0,0E0,0E0,0E0,0E0,0E0,0E0,0E0,0E0,0E0,0E0,0E0,0E0,0E0,0E0,0E0,0E0,0E0,0E0,0E0,0E0,0E0,0E0,0E0,0E0,0E0,0E0,0E0,0E0,0E0,0E0,0E0,0E0,0E0,0E0,0E0,0E0,0E0,0E0,0E0,0E0],"parents":[2147483647,0,0,1,1,2,2,3,3,4,4,5,5,6,6,7,7,8,8,9,9,10,10,11,11,12,12,13,13,14,14,15,15,16,16,17,17,18,18,19,19,20,20,21,21,22,22,23,23,24,24,25,25,26,26,27,27,28,28,29,29,30,30,31,31,32,32,33,33,34,34,35,35,36,36,37,37,38,38,39,39,40,40,41,41,42,42,43,43,44,44,45,45,46,46,47,47,48,48,49,49,50,50,51,51,52,52,53,53,54,54,55,55,56,56,57,57,58,58,59,59,60,60,61,61,62,62],"right_children":[2,4,6,8,10,12,14,16,18,20,22,24,26,28,30,32,34,36,38,40,42,44,46,48,50,52,54,56,58,60,62,64,66,68,70,72,74,76,78,80,82,84,86,88,90,92,94,96,98,100,102,104,106,108,110,112,114,116,118,120,122,124,126,-1,-1,-1,-1,-1,-1,-1,-1,-1,-1,-1,-1,-1,-1,-1,-1,-1,-1,-1,-1,-1,-1,-1,-1,-1,-1,-1,-1,-1,-1,-1,-1,-1,-1,-1,-1,-1,-1,-1,-1,-1,-1,-1,-1,-1,-1,-1,-1,-1,-1,-1,-1,-1,-1,-1,-1,-1,-1,-1,-1,-1,-1,-1,-1],"split_conditions":[-1.105281E-2,1.173724E-2,2.7422062E-1,3.4245677E-2,5.0657243E-2,3.282344E-3,1.4402029E-1,-4.9446717E-2,2.644232E-2,8.643782E-2,8.643545E-3,-7.673611E-2,-3.84122E-2,1.1909157E-1,4.5849867E-3,-1.026407E-1,7.7543566E-3,1.7305702E-2,4.2872258E-2,1.5956923E-2,-1.3329889E-2,1.0883434E-2,-6.2351925E-3,4.424891E-2,2.17142E-2,-2.2632955E-4,-1.4940815E-2,1.4059305E-3,-4.0264465E-2,4.1276908E-1,1.4166237E-2,-1.9340247E-2,-4.5006517E-3,-2.0501427E-2,3.121521E-2,1.880536E-2,-1.591808E-2,4.918228E-2,1.9887965E-2,7.1650594E-2,-3.7116273E-3,-1.1888911E-1,-3.333024E-2,3.436111E-2,2.9188197E-2,1.0348036E-2,3.1524263E-2,6.335275E-2,-8.244067E-3,-2.6957339E-2,1.0739898E-2,1.293234E-1,1.8835032E-2,-6.707839E-2,-4.6816006E-2,1.655953E-2,-1.05076596E-1,3.4108736E-2,-7.137869E-2,1.7264062E-1,2.7905118E-1,4.2318184E-2,-2.951033E-3,-4.4409636E-2,-1.7370152E-1,-5.6346033E-2,9.6829675E-2,-8.147043E-2,-1.7997256E-1,-1.0275951E-1,3.300664E-2,8.9643106E-2,-9.151724E-2,6.5481074E-2,3.0124092E-1,-9.930345E-2,-2.4799581E-1,-6.701817E-2,3.1442678E-1,6.493352E-2,-2.9625037E-1,1.738782E-2,-1.052938E-1,3.1968486E-1,-3.5759318E-1,-3.0073482E-1,6.4037465E-2,2.745203E-1,-6.464699E-3,-1.803437E-2,2.991993E-1,7.207347E-2,2.9807374E-1,-5.1553184E-1,4.115639E-1,2.036433E-1,-1.5089959E-1,-7.045415E-2,3.148207E-1,1.892233E-1,-9.062155E-2,1.7157961E-1,-2.5046902E-2,2.742353E-1,7.648388E-1,2.1652225E-1,9.593842E-2,-1.0785364E-1,2.024139E-1,2.3737419E-1,4.7463614E-2,4.2085356E-1,2.182151E-1,2.4389437E-1,3.120406E-1,3.4934455E-1,4.2978503E-2,-2.514325E-1,1.8806447E-1,6.1583105E-2,-1.5322384E-1,3.366004E-1,-2.0303181E-1,2.6195282E-1,-9.712732E-2,1.4819877E-1,-7.594462E-2],"split_indices":[1,51,0,81,32,25,2,2,40,18,14,6,12,2,44,1,48,11,49,42,8,26,27,10,37,178,42,1,5,0,84,28,39,129,4,29,38,40,48,43,28,3,53,2,131,80,0,2,4,2,40,33,77,51,6,28,10,122,39,2,2,68,24,0,0,0,0,0,0,0,0,0,0,0,0,0,0,0,0,0,0,0,0,0,0,0,0,0,0,0,0,0,0,0,0,0,0,0,0,0,0,0,0,0,0,0,0,0,0,0,0,0,0,0,0,0,0,0,0,0,0,0,0,0,0,0,0],"split_type":[0,0,0,0,0,0,0,0,0,0,0,0,0,0,0,0,0,0,0,0,0,0,0,0,0,0,0,0,0,0,0,0,0,0,0,0,0,0,0,0,0,0,0,0,0,0,0,0,0,0,0,0,0,0,0,0,0,0,0,0,0,0,0,0,0,0,0,0,0,0,0,0,0,0,0,0,0,0,0,0,0,0,0,0,0,0,0,0,0,0,0,0,0,0,0,0,0,0,0,0,0,0,0,0,0,0,0,0,0,0,0,0,0,0,0,0,0,0,0,0,0,0,0,0,0,0,0],"sum_hessian":[1.8787356E5,1.29090805E5,5.8782766E4,8.446145E4,4.462935E4,4.879244E4,9.990328E3,7.427931E4,1.0182141E4,3.9957164E4,4.672186E3,2.9361969E4,1.943047E4,8.499021E3,1.4913064E3,2.0818576E4,5.3460734E4,8.138101E3,2.0440394E3,3.832772E4,1.6294457E3,1.8885642E3,2.7836218E3,2.161657E3,2.7200312E4,4.9549604E3,1.447551E4,8.0124497E3,4.8657162E2,7.5380164E2,7.375047E2,6.145496E3,1.467308E4,3.3715418E4,1.9745314E4,5.7756416E3,2.3624597E3,1.8212913E3,2.2274815E2,2.4616562E4,1.3711155E4,1.361533E3,2.6791266E2,8.20674E2,1.0678903E3,8.521272E2,1.9314946E3,5.129615E2,1.6486956E3,2.1036346E4,6.1639663E3,2.4549678E3,2.4999927E3,5.0386836E3,9.436826E3,4.9315164E2,7.519298E3,1.6243517E2,3.2413647E2,6.6580115E2,8.800049E1,4.8908807E2,2.4841663E2,1.9218038E3,4.2236924E3,6.503082E3,8.1699976E3,5.9092397E3,2.780618E4,1.3409134E4,6.336181E3,4.258935E3,1.5167063E3,6.204006E2,1.7420591E3,1.0428833E3,7.7840796E2,1.1682764E2,1.0592052E2,2.3872969E4,7.4359314E2,5.0633306E3,8.647825E3,1.6475765E0,1.3598854E3,9.25046E1,1.7540807E2,6.539554E2,1.6671863E2,9.266519E2,1.4123828E2,5.167508E2,3.353764E2,1.809821E1,1.9133964E3,4.390344E2,7.39271E1,4.832454E0,1.6438632E3,1.4843839E3,1.955196E4,4.3981353E3,1.7658308E3,2.440698E3,1.42697115E1,1.9123042E3,5.876885E2,2.313113E2,4.8073726E3,1.3320503E3,8.1047764E3,3.685312E2,1.2462047E2,2.569402E2,7.262358E3,1.5418811E2,8.24705E0,1.0233854E1,3.1390262E2,2.524796E2,4.1332156E2,8.318514E1,4.815339E0,4.5927194E2,2.9816149E1,1.7056453E2,7.785209E1],"tree_param":{"num_deleted":"0","num_feature":"384","num_nodes":"127","size_leaf_vector":"0"}},{"base_weights":[3.9220307E-4,-3.4558184E-2,9.110845E-1,2.6203924E-1,-1.15133926E-1,5.941426E-1,1.0111656E0,-7.518141E-1,3.1349593E-1,5.471899E-2,-2.333563E-1,6.845227E-1,-2.705102E-1,4.7141728E-1,1.0164889E0,-1.2383305E0,-3.9719662E-1,6.5584105E-1,1.6741107E-1,2.4395001E-1,-9.192618E-2,-3.3121553E-1,-2.9600795E-2,3.8162982E-1,8.671238E-1,-1.4658157E0,5.656202E-2,-3.229129E-1,7.2939384E-1,8.545433E-1,1.021773E0,-1.5390356E0,-1.0595653E0,8.200176E-1,-5.440921E-1,-1.0721683E-1,7.643759E-1,-1.557975E-1,3.017346E-1,3.1237843E-2,4.3162006E-1,-1.8407771E-1,2.5409406E-1,-5.0975525E-1,-2.0377688E-1,3.4777394E-1,-1.3918665E-1,1.0142517E-1,9.6020406E-1,9.232992E-1,3.8880163E-1,4.407685E-1,-1.8395679E0,-2.4904197E-1,8.34849E-1,-1.4607255E0,5.1768446E-1,-1.5666656E-1,9.663129E-1,8.9387965E-1,-6.375501E-1,2.562157E-2,1.0219786E0,-2.3662355E0,-1.3694682E0,9.126182E-1,-1.0821375E0,-7.578888E-1,1.0450448E0,-7.403195E-1,3.252323E-1,1.3472427E0,-1.9012439E-1,3.8892233E-1,9.556928E-1,7.27068E-1,-2.4854794E-1,6.509412E-1,1.5593684E-1,-2.2367586E-1,2.7345634E-1,2.47449E-1,6.788691E-1,-1.4718337E-1,-9.2886114E-1,9.844179E-2,8.158742E-1,-1.5885368E-1,-6.436573E-1,-2.317119E-1,8.634104E-1,1.7694311E-1,6.4687496E-1,2.5681257E-1,-2.3532103E-1,5.242064E-1,-4.0602168E-1,9.76614E-1,-6.496556E-1,9.308434E-1,-9.391661E-1,-5.1291245E-1,7.86967E-1,-9.579508E-1,9.015261E-1,-2.6056294E0,-6.273306E-1,8.232519E-1,-7.211238E-1,-9.2432046E-1,9.190472E-1,5.805648E-1,-2.0228593E0,8.70372E-1,-7.578064E-1,-1.6834525E0,6.774374E-1,1.0248533E0,-2.7967566E-1,-9.331452E-1,9.1176814E-1,7.336433E-1,-2.3380442E0,1.0221859E0,6.2268145E-2],"categories":[],"categories_nodes":[],"categories_segments":[],"categories_sizes":[],"default_left":[1,1,1,1,1,1,1,1,1,1,1,1,1,1,1,1,1,1,1,1,1,1,1,1,1,1,1,1,1,1,1,1,1,1,1,1,1,1,1,1,1,1,1,1,1,1,1,1,1,1,1,1,1,1,1,1,1,1,1,1,1,0,1,0,0,0,0,0,0,0,0,0,0,0,0,0,0,0,0,0,0,0,0,0,0,0,0,0,0,0,0,0,0,0,0,0,0,0,0,0,0,0,0,0,0,0,0,0,0,0,0,0,0,0,0,0,0,0,0,0,0,0,0,0,0],"id":10,"left_children":[1,3,5,7,9,11,13,15,17,19,21,23,25,27,29,31,33,35,37,39,41,43,45,47,49,51,53,55,57,59,61,63,65,67,69,71,73,75,77,79,81,83,85,87,89,91,93,95,97,99,101,103,105,107,109,111,113,115,117,119,121,-1,123,-1,-1,-1,-1,-1,-1,-1,-1,-1,-1,-1,-1,-1,-1,-1,-1,-1,-1,-1,-1,-1,-1,-1,-1,-1,-1,-1,-1,-1,-1,-1,-1,-1,-1,-1,-1,-1,-1,-1,-1,-1,-1,-1,-1,-1,-1,-1,-1,-1,-1,-1,-1,-1,-1,-1,-1,-1,-1,-1,-1,-1,-1],"loss_changes":[5.6994717E3,4.1212637E3,2.0932617E2,1.9221753E3,2.7230718E3,1.24494934E2,1.3968262E1,3.065644E2,1.7533662E3,1.5443679E3,1.5942661E3,7.93385E1,5.921599E1,1.0680916E1,3.387207E0,3.867859E1,1.8477312E2,8.6853467E2,1.067014E3,9.699718E2,9.998431E2,1.2288755E3,1.0729191E3,8.8024284E1,2.3767456E1,2.3993584E1,2.868333E1,1.3371121E1,8.293085E0,1.0161552E1,9.5996094E-1,3.5664856E1,2.2065918E1,4.0351135E1,1.5726123E2,1.5782205E2,6.5907324E2,5.910574E2,8.8383105E2,7.0335944E2,5.876575E2,6.802638E2,5.765736E2,1.0569062E3,9.398474E2,2.9820813E2,7.6545874E2,7.901829E1,5.31662E0,1.2154114E1,3.490492E1,4.819994E0,2.3804924E1,4.4500328E1,5.883354E0,7.905121E0,4.4040174E0,1.2656515E1,2.528904E0,6.0682526E0,1.2863855E1,0E0,8.9453125E-1,0E0,0E0,0E0,0E0,0E0,0E0,0E0,0E0,0E0,0E0,0E0,0E0,0E0,0E0,0E0,0E0,0E0,0E0,0E0,0E0,0E0,0E0,0E0,0E0,0E0,0E0,0E0,0E0,0E0,0E0,0E0,0E0,0E0,0E0,0E0,0E0,0E0,0E0,0E0,0E0,0E0,0E0,0E0,0E0,0E0,0E0,0E0,0E0,0E0,0E0,0E0,0E0,0E0,0E0,0E0,0E0,0E0,0E0,0E0,0E0,0E0,0E0],"parents":[2147483647,0,0,1,1,2,2,3,3,4,4,5,5,6,6,7,7,8,8,9,9,10,10,11,11,12,12,13,13,14,14,15,15,16,16,17,17,18,18,19,19,20,20,21,21,22,22,23,23,24,24,25,25,26,26,27,27,28,28,29,29,30,30,31,31,32,32,33,33,34,34,35,35,36,36,37,37,38,38,39,39,40,40,41,41,42,42,43,43,44,44,45,45,46,46,47,47,48,48,49,49,50,50,51,51,52,52,53,53,54,54,55,55,56,56,57,57,58,58,59,59,60,60,62,62],"right_children":[2,4,6,8,10,12,14,16,18,20,22,24,26,28,30,32,34,36,38,40,42,44,46,48,50,52,54,56,58,60,62,64,66,68,70,72,74,76,78,80,82,84,86,88,90,92,94,96,98,100,102,104,106,108,110,112,114,116,118,120,122,-1,124,-1,-1,-1,-1,-1,-1,-1,-1,-1,-1,-1,-1,-1,-1,-1,-1,-1,-1,-1,-1,-1,-1,-1,-1,-1,-1,-1,-1,-1,-1,-1,-1,-1,-1,-1,-1,-1,-1,-1,-1,-1,-1,-1,-1,-1,-1,-1,-1,-1,-1,-1,-1,-1,-1,-1,-1,-1,-1,-1,-1,-1,-1],"split_conditions":[5.442734E-2,-2.2794947E-2,2.5224036E-1,6.621334E-2,-7.2128437E-3,1.2316627E-1,-8.0297634E-2,4.215447E-2,-1.85388E-2,-5.0495164E-3,1.4557056E-2,1.6177359E-1,1.9345444E-1,-2.9495608E-2,6.4090736E-2,-5.5104814E-2,-6.5447435E-2,-1.0380622E-1,-6.970301E-2,-1.0418249E-3,2.196689E-2,7.3082116E-4,-4.5506895E-2,8.126318E-2,2.4526801E-2,-3.2967567E-2,4.306025E-2,-1.1726016E-2,-1.068338E-2,5.027862E-2,-1.8653387E-1,-2.816029E-3,-5.390989E-2,-3.0948037E-2,5.2832417E-2,-1.2704074E-1,-8.904953E-3,-1.1364063E-1,-1.6370779E-2,4.363577E-3,6.675819E-3,6.499314E-2,2.9152896E-2,-3.7558876E-2,1.3394323E-1,1.0769577E-2,-2.2780254E-2,1.7225461E-3,5.5631176E-2,1.6717036E-1,-4.4496976E-2,-2.4609195E-2,4.9724276E-3,1.5647446E-1,-3.0222468E-2,-7.942148E-3,1.4169667E-2,-1.8431205E-2,3.683427E-2,-6.788346E-2,1.1913095E-2,7.6864716E-3,6.484337E-2,-7.098707E-1,-4.1084048E-1,2.7378547E-1,-3.2464126E-1,-2.2736664E-1,3.1351346E-1,-2.2209586E-1,9.75697E-2,4.0417284E-1,-5.703732E-2,1.166767E-1,2.8670785E-1,2.1812041E-1,-7.456438E-2,1.9528237E-1,4.6781052E-2,-6.710276E-2,8.2036905E-2,7.42347E-2,2.0366074E-1,-4.4155013E-2,-2.7865836E-1,2.9532537E-2,2.4476227E-1,-4.7656108E-2,-1.930972E-1,-6.9513574E-2,2.5902313E-1,5.3082936E-2,1.940625E-1,7.704377E-2,-7.0596315E-2,1.5726192E-1,-1.2180651E-1,2.9298422E-1,-1.9489668E-1,2.7925304E-1,-2.8174984E-1,-1.5387374E-1,2.3609011E-1,-2.8738526E-1,2.7045783E-1,-7.8168887E-1,-1.8819919E-1,2.4697559E-1,-2.1633716E-1,-2.7729616E-1,2.7571416E-1,1.7416945E-1,-6.0685784E-1,2.6111162E-1,-2.2734194E-1,-5.0503576E-1,2.0323123E-1,3.0745602E-1,-8.39027E-2,-2.799436E-1,2.7353045E-1,2.20093E-1,-7.014133E-1,3.066558E-1,1.8680444E-2],"split_indices":[1,59,0,0,42,2,7,0,34,29,56,0,0,30,1,59,6,1,1,20,39,8,10,4,88,17,25,243,98,120,10,6,252,50,5,2,11,2,58,11,88,18,23,10,4,25,58,31,150,24,7,29,207,5,374,158,255,232,128,101,262,0,369,0,0,0,0,0,0,0,0,0,0,0,0,0,0,0,0,0,0,0,0,0,0,0,0,0,0,0,0,0,0,0,0,0,0,0,0,0,0,0,0,0,0,0,0,0,0,0,0,0,0,0,0,0,0,0,0,0,0,0,0,0,0],"split_type":[0,0,0,0,0,0,0,0,0,0,0,0,0,0,0,0,0,0,0,0,0,0,0,0,0,0,0,0,0,0,0,0,0,0,0,0,0,0,0,0,0,0,0,0,0,0,0,0,0,0,0,0,0,0,0,0,0,0,0,0,0,0,0,0,0,0,0,0,0,0,0,0,0,0,0,0,0,0,0,0,0,0,0,0,0,0,0,0,0,0,0,0,0,0,0,0,0,0,0,0,0,0,0,0,0,0,0,0,0,0,0,0,0,0,0,0,0,0,0,0,0,0,0,0,0],"sum_hessian":[1.790631E5,1.7244595E5,6.6171387E3,3.6839258E4,1.356067E5,1.5897084E3,5.02743E3,1.7787556E3,3.50605E4,5.5651457E4,7.995524E4,1.439454E3,1.5025436E2,4.9973343E1,4.977457E3,7.4886316E2,1.0298925E3,1.0485227E4,2.4575275E4,2.4297406E4,3.135405E4,5.4013254E4,2.594199E4,5.4256104E2,8.9689294E2,3.1533096E1,1.1872127E2,1.2189426E1,3.7783916E1,1.6241977E2,4.815037E3,2.7636826E2,4.7249487E2,1.10411545E2,9.194809E2,1.3056716E3,9.179555E3,7.2148296E3,1.7360445E4,1.1389403E4,1.2908003E4,2.4760377E4,6.5936743E3,2.2495033E4,3.1518219E4,5.83751E3,2.010448E4,3.663246E2,1.7623643E2,8.017975E2,9.5095436E1,5.138956E0,2.639414E1,8.5735985E1,3.298528E1,4.86566E0,7.3237658E0,8.042873E0,2.9741045E1,1.5863849E2,3.7812908E0,1.019315E0,4.814018E3,4.4811222E1,2.3155704E2,4.9004464E0,4.6759442E2,1.3485102E1,9.6926445E1,7.502744E2,1.6920651E2,6.9590225E1,1.2360814E3,3.09964E3,6.079915E3,6.8525354E2,6.529576E3,5.1122964E3,1.2248148E4,5.549314E3,5.8400894E3,7.3987886E3,5.509215E3,2.3592855E4,1.1675219E3,5.1640483E3,1.4296261E3,6.2136987E3,1.6281335E4,3.0714996E4,8.0322174E2,3.7164565E3,2.1210535E3,3.9269233E3,1.6177558E4,1.9981499E2,1.6650961E2,1.748475E2,1.3889309E0,7.99061E2,2.7365327E0,2.9040358E1,6.605508E1,1.0059924E0,4.1329637E0,1.5469135E1,1.0925005E1,2.5980227E1,5.975576E1,1.0508906E0,3.193439E1,1.0435185E0,3.822142E0,5.986147E0,1.337619E0,2.4817948E0,5.561078E0,2.8575933E1,1.1651103E0,1.0420833E0,1.575964E2,2.4080944E0,1.3731965E0,4.812913E3,1.104724E0],"tree_param":{"num_deleted":"0","num_feature":"384","num_nodes":"125","size_leaf_vector":"0"}},{"base_weights":[5.4011465E-4,-2.4648674E-2,9.219056E-1,2.7832177E-1,-8.965688E-2,5.422938E-1,1.0017995E0,-5.5683877E-2,3.8336286E-1,-2.1572645E-1,4.505181E-2,2.2547881E-1,8.214592E-1,4.4562182E-1,1.0100178E0,-2.3227082E-1,4.3067515E-1,1.1524135E0,3.364192E-1,-2.8140584E-1,1.5364139E-1,-1.7993005E-2,5.5954003E-1,-3.5720038E-1,5.6583357E-1,-1.0238464E0,8.6678666E-1,-1.9054413E-1,7.160886E-1,1.0120461E0,5.8296335E-1,-5.2560456E-2,-4.8931813E-1,-1.4701834E-1,5.830146E-1,1.667961E0,6.52001E-1,3.571654E-1,-1.282233E0,-3.9549607E-1,-9.639114E-2,2.6618367E-1,-3.7059572E-1,4.3895966E-3,-1.1858932E0,3.7257668E-1,9.6715903E-1,-1.0835259E0,3.844268E-1,7.03239E-1,-6.734207E-1,-1.4417164E0,7.127516E-1,-3.449998E-1,8.939759E-1,3.7957606E-1,-1.3203349E0,8.2759625E-1,-7.4863327E-1,1.0124986E0,-5.883516E-2,9.137102E-1,-1.7833138E0,-3.0711782E-1,2.3413342E-1,-6.268823E-1,2.5194603E-1,-1.1926336E0,9.677739E-2,3.8038084E-1,7.857536E-1,1.0542235E0,2.0231307E0,3.6816368E-1,1.1982889E0,2.1297435E-1,5.8874327E-1,-1.3114554E0,1.1386508E0,6.616732E-2,-4.472186E-1,-2.1166687E-1,1.1116731E-1,8.593545E-2,6.6419476E-1,-7.5689316E-2,-8.3435076E-1,-8.929419E-2,3.4815452E-1,-1.3949955E0,-6.532819E-1,5.8645904E-1,3.79322E-2,1.2912126E0,5.1447684E-1,-1.7478128E-1,-1.7122036E0,-3.4321433E-1,7.8947145E-1,8.0427444E-1,-6.634719E-1,-1.1892561E0,7.432159E-1,-1.7320342E0,-1.0289023E-1,-1.3305519E0,6.021086E-1,-1.1896547E0,9.03324E-1,8.8651156E-1,-6.7647535E-1,6.000575E-1,-1.9083883E0,-7.863378E-1,8.998237E-1,-1.9505027E-1,-9.096996E-1,7.825013E-1,1.0152922E0,2.7787425E-2,9.6337223E-1],"categories":[],"categories_nodes":[],"categories_segments":[],"categories_sizes":[],"default_left":[1,1,1,1,1,1,1,1,1,1,1,1,1,1,1,1,1,1,1,1,1,1,1,1,1,1,1,1,1,1,1,1,1,1,1,1,1,1,1,1,1,1,1,1,1,1,1,1,1,1,1,1,0,1,1,1,1,1,1,1,0,1,0,0,0,0,0,0,0,0,0,0,0,0,0,0,0,0,0,0,0,0,0,0,0,0,0,0,0,0,0,0,0,0,0,0,0,0,0,0,0,0,0,0,0,0,0,0,0,0,0,0,0,0,0,0,0,0,0,0,0],"id":11,"left_children":[1,3,5,7,9,11,13,15,17,19,21,23,25,27,29,31,33,35,37,39,41,43,45,47,49,51,53,55,57,59,61,63,65,67,69,71,73,75,77,79,81,83,85,87,89,91,93,95,97,99,101,103,-1,105,107,109,111,113,115,117,-1,119,-1,-1,-1,-1,-1,-1,-1,-1,-1,-1,-1,-1,-1,-1,-1,-1,-1,-1,-1,-1,-1,-1,-1,-1,-1,-1,-1,-1,-1,-1,-1,-1,-1,-1,-1,-1,-1,-1,-1,-1,-1,-1,-1,-1,-1,-1,-1,-1,-1,-1,-1,-1,-1,-1,-1,-1,-1,-1,-1],"loss_changes":[4.0348997E3,3.3331262E3,1.3977344E2,1.0489404E3,2.3662886E3,7.115271E1,1.7014893E1,6.144928E2,8.207322E2,1.7461604E3,2.1848972E3,7.5403496E1,3.6719727E1,1.0017504E1,2.6706543E0,2.4243942E2,1.6781186E2,3.3637402E2,7.203425E2,1.2898896E3,6.4123047E2,1.5686556E3,5.6002856E2,7.60642E1,4.130008E1,8.813415E0,1.4102417E1,1.204475E1,7.235285E0,1.8742676E0,1.7403175E1,2.2559819E2,2.2037451E2,1.01700516E2,6.1666992E1,1.3816956E2,1.0273596E2,7.066665E2,2.070044E1,9.026279E2,5.57772E2,6.4179803E2,2.626598E2,1.8962952E3,1.2476123E2,3.6090515E2,3.3842603E2,4.0384583E1,2.0967932E1,3.0404312E1,1.8744541E1,3.3117886E0,0E0,1.0050563E1,9.055878E0,7.392065E0,8.185012E0,5.150675E0,1.2487733E-1,1.6113281E0,0E0,7.8031254E-1,0E0,0E0,0E0,0E0,0E0,0E0,0E0,0E0,0E0,0E0,0E0,0E0,0E0,0E0,0E0,0E0,0E0,0E0,0E0,0E0,0E0,0E0,0E0,0E0,0E0,0E0,0E0,0E0,0E0,0E0,0E0,0E0,0E0,0E0,0E0,0E0,0E0,0E0,0E0,0E0,0E0,0E0,0E0,0E0,0E0,0E0,0E0,0E0,0E0,0E0,0E0,0E0,0E0,0E0,0E0,0E0,0E0,0E0,0E0],"parents":[2147483647,0,0,1,1,2,2,3,3,4,4,5,5,6,6,7,7,8,8,9,9,10,10,11,11,12,12,13,13,14,14,15,15,16,16,17,17,18,18,19,19,20,20,21,21,22,22,23,23,24,24,25,25,26,26,27,27,28,28,29,29,30,30,31,31,32,32,33,33,34,34,35,35,36,36,37,37,38,38,39,39,40,40,41,41,42,42,43,43,44,44,45,45,46,46,47,47,48,48,49,49,50,50,51,51,53,53,54,54,55,55,56,56,57,57,58,58,59,59,61,61],"right_children":[2,4,6,8,10,12,14,16,18,20,22,24,26,28,30,32,34,36,38,40,42,44,46,48,50,52,54,56,58,60,62,64,66,68,70,72,74,76,78,80,82,84,86,88,90,92,94,96,98,100,102,104,-1,106,108,110,112,114,116,118,-1,120,-1,-1,-1,-1,-1,-1,-1,-1,-1,-1,-1,-1,-1,-1,-1,-1,-1,-1,-1,-1,-1,-1,-1,-1,-1,-1,-1,-1,-1,-1,-1,-1,-1,-1,-1,-1,-1,-1,-1,-1,-1,-1,-1,-1,-1,-1,-1,-1,-1,-1,-1,-1,-1,-1,-1,-1,-1,-1,-1],"split_conditions":[6.000619E-2,-2.2832615E-2,2.2221226E-1,-2.4220973E-2,3.9208652E-3,1.5681893E-2,-7.885761E-2,-1.803995E-2,-4.6474874E-2,3.0266114E-2,3.3499636E-2,-4.765276E-3,-9.616774E-2,-1.4847316E-2,1.8806678E-1,1.1697818E-2,-2.0103347E-2,-1.5757907E-2,1.1918322E-1,1.1471345E-2,5.2464556E-2,7.83719E-2,2.207468E-2,1.2236357E-2,1.2821159E-1,-2.4669502E-2,8.128284E-2,1.0420034E-2,1.1677407E-1,1.4075047E-1,1.563747E-1,-7.4937963E-4,4.8606183E-2,-4.3298427E-2,8.0785975E-3,3.5227179E-3,6.6997046E-3,1.0651855E-2,3.0972123E-2,-6.729327E-2,-1.6732045E-2,1.7101878E-2,2.9257275E-2,2.49185E-2,-2.3978084E-2,7.1040895E-3,-1.4544608E-3,-2.7811851E-2,-5.1453914E-3,1.4664998E-2,8.534928E-2,-1.579469E-2,2.138255E-1,-7.0463093E-3,-6.086928E-2,-1.0336272E-2,-1.312704E-2,-3.4831405E-2,5.802856E-3,6.2856734E-2,-1.7650548E-2,-3.3313453E-2,-5.349941E-1,-9.213535E-2,7.024003E-2,-1.8806471E-1,7.5583816E-2,-3.577901E-1,2.9033218E-2,1.14114255E-1,2.3572609E-1,3.1626707E-1,6.069392E-1,1.10449106E-1,3.594867E-1,6.389231E-2,1.7662299E-1,-3.9343664E-1,3.4159523E-1,1.9850196E-2,-1.3416559E-1,-6.350006E-2,3.3350196E-2,2.5780637E-2,1.9925843E-1,-2.2706795E-2,-2.5030524E-1,-2.6788257E-2,1.0444636E-1,-4.1849867E-1,-1.9598459E-1,1.7593771E-1,1.137966E-2,3.873638E-1,1.5434305E-1,-5.2434385E-2,-5.136611E-1,-1.02964304E-1,2.3684144E-1,2.4128234E-1,-1.9904158E-1,-3.5677683E-1,2.2296478E-1,-5.196103E-1,-3.086707E-2,-3.9916557E-1,1.8063259E-1,-3.5689643E-1,2.7099723E-1,2.6595348E-1,-2.0294261E-1,1.8001725E-1,-5.725165E-1,-2.3590134E-1,2.6994714E-1,-5.8515083E-2,-2.729099E-1,2.3475039E-1,3.0458766E-1,8.336227E-3,2.890117E-1],"split_indices":[1,138,0,32,38,4,7,1,104,39,114,23,52,243,2,40,52,140,28,23,24,72,94,51,2,58,0,376,24,24,5,11,14,8,11,54,142,11,173,10,1,44,34,51,63,128,5,12,53,40,1,114,0,120,143,46,370,39,334,1,0,338,0,0,0,0,0,0,0,0,0,0,0,0,0,0,0,0,0,0,0,0,0,0,0,0,0,0,0,0,0,0,0,0,0,0,0,0,0,0,0,0,0,0,0,0,0,0,0,0,0,0,0,0,0,0,0,0,0,0,0],"split_type":[0,0,0,0,0,0,0,0,0,0,0,0,0,0,0,0,0,0,0,0,0,0,0,0,0,0,0,0,0,0,0,0,0,0,0,0,0,0,0,0,0,0,0,0,0,0,0,0,0,0,0,0,0,0,0,0,0,0,0,0,0,0,0,0,0,0,0,0,0,0,0,0,0,0,0,0,0,0,0,0,0,0,0,0,0,0,0,0,0,0,0,0,0,0,0,0,0,0,0,0,0,0,0,0,0,0,0,0,0,0,0,0,0,0,0,0,0,0,0,0,0],"sum_hessian":[1.7385558E5,1.6923005E5,4.62553E3,2.9896104E4,1.3933394E5,8.05591E2,3.8199385E3,7.1526963E3,2.2743408E4,7.19746E4,6.7359336E4,3.7819662E2,4.2739438E2,5.642738E1,3.7635112E3,5.247837E3,1.9048593E3,1.3070597E3,2.1436348E4,6.110875E4,1.0865855E4,6.0007098E4,7.352238E3,1.3943602E2,2.3876062E2,9.729126E0,4.1766525E2,1.6921576E1,3.9505806E1,3.7443567E3,1.915457E1,3.0892463E3,2.1585908E3,3.975034E2,1.5073558E3,6.426449E2,6.644148E2,2.1165846E4,2.7050232E2,3.7798793E4,2.3309955E4,8.945865E3,1.9199901E3,5.8879676E4,1.1274224E3,5.0416772E3,2.3105608E3,7.021182E1,6.922419E1,2.153191E2,2.3441517E1,7.978983E0,1.7501435E0,8.909129E0,4.0875613E2,1.1687703E1,5.2338724E0,3.7115246E1,2.3905623E0,3.7428298E3,1.5267873E0,1.7344149E1,1.8104198E0,1.6362965E3,1.4529497E3,1.8208339E3,3.3775702E2,7.442219E1,3.2308118E2,7.55312E2,7.520438E2,2.3702725E2,4.056176E2,4.3833893E2,2.260759E2,1.3045216E4,8.12063E3,2.6772885E2,2.7734678E0,3.8081177E3,3.3990676E4,1.4986561E4,8.323394E3,6.158201E3,2.7876636E3,1.1743638E3,7.456263E2,4.6270617E4,1.2609059E4,8.0841925E2,3.1900314E2,3.0753604E3,1.9663168E3,1.3455171E3,9.650437E2,2.923339E1,4.0978436E1,2.4808926E1,4.4415268E1,2.0088036E2,1.4438751E1,1.730193E1,6.139588E0,6.3157477E0,1.6632348E0,4.1675544E0,4.7415752E0,1.2617316E0,4.074944E2,8.005412E0,3.6822903E0,1.222188E0,4.0116844E0,1.1663344E0,3.594891E1,1.0370902E0,1.3534721E0,4.8289066E1,3.6945408E3,1.0034316E0,1.6340717E1],"tree_param":{"num_deleted":"0","num_feature":"384","num_nodes":"121","size_leaf_vector":"0"}},{"base_weights":[1.6954303E-4,-1.8449022E-2,9.147286E-1,1.3725914E-1,-1.2271749E-1,4.666156E-1,9.924699E-1,4.4013953E-1,2.2627484E-2,1.6734688E-1,-1.8081449E-1,2.2536758E-1,8.2576156E-1,4.4653165E-1,1.0053301E0,6.593951E-1,1.989989E-1,5.546003E-2,-7.2624826E-1,2.3314334E-2,4.2061242E-1,-7.701198E-1,-1.5185507E-1,3.9830238E-1,-8.0950445E-1,-4.474793E-1,8.946233E-1,-1.2711089E0,5.9788626E-1,1.0061065E0,-1.3034688E-1,3.166799E-1,8.039671E-1,-8.012233E-2,3.5542926E-1,-1.447005E-1,1.7805544E-1,-1.5706627E-1,-1.1160814E0,-3.1869313E-1,1.0820589E-1,4.695957E-1,-8.707193E-1,-5.1478785E-1,-1.1402642E0,-1.8848583E-2,-2.8059608E-1,5.921162E-1,-3.4611636E-1,-1.8868545E-1,-1.84577E0,4.4124165E-1,-1.4410151E0,9.2385495E-1,-3.8930422E-1,-2.7629118E0,4.1693494E-1,7.631923E-1,-2.79125E-1,1.0081732E0,5.062505E-1,7.5896E-2,5.918675E-1,5.175335E-1,9.6628654E-1,-3.483322E-1,2.1703744E-1,7.0821583E-1,2.0751016E-1,-6.2842566E-1,-3.9203458E-2,1.0354286E-1,6.8570936E-1,-6.5383863E-1,3.4612614E-1,4.569048E-1,-1.1493311E0,-2.2536227E-1,-1.1334344E0,4.3126993E-2,6.698412E-1,1.7210184E-1,6.290417E-1,-1.2357206E0,1.4188413E-1,-6.744427E-1,3.4035906E-2,-2.3995145E-1,-1.1611001E0,1.6905577E-1,-1.280977E-1,-8.01046E-2,-3.818589E-1,7.860374E-1,-1.02729954E-1,2.0278011E-1,-1.2272193E0,5.580158E-1,-1.0081184E0,-8.731278E-1,-4.5402155E0,-7.03094E-1,8.480476E-1,2.6183024E-1,-1.9012786E0,9.392156E-1,-6.836764E-1,-2.3608756E0,7.605182E-1,-3.4288769E0,-6.723432E-1,-1.13103665E-1,6.6331345E-1,-2.4015787E-1,8.769218E-1,3.071468E-1,-1.3780032E0,1.8864658E-1,1.0088755E0,9.323111E-1,-1.9084308E0],"categories":[],"categories_nodes":[],"categories_segments":[],"categories_sizes":[],"default_left":[1,1,1,1,1,1,1,1,1,1,1,1,1,1,1,1,1,1,1,1,1,1,1,1,1,1,1,1,1,1,0,1,1,1,1,1,1,1,1,1,1,1,1,1,1,1,1,1,1,1,1,1,1,1,1,1,1,1,1,1,1,0,0,0,0,0,0,0,0,0,0,0,0,0,0,0,0,0,0,0,0,0,0,0,0,0,0,0,0,0,0,0,0,0,0,0,0,0,0,0,0,0,0,0,0,0,0,0,0,0,0,0,0,0,0,0,0,0,0,0,0],"id":12,"left_children":[1,3,5,7,9,11,13,15,17,19,21,23,25,27,29,31,33,35,37,39,41,43,45,47,49,51,53,55,57,59,-1,61,63,65,67,69,71,73,75,77,79,81,83,85,87,89,91,93,95,97,99,101,103,105,107,109,111,113,115,117,119,-1,-1,-1,-1,-1,-1,-1,-1,-1,-1,-1,-1,-1,-1,-1,-1,-1,-1,-1,-1,-1,-1,-1,-1,-1,-1,-1,-1,-1,-1,-1,-1,-1,-1,-1,-1,-1,-1,-1,-1,-1,-1,-1,-1,-1,-1,-1,-1,-1,-1,-1,-1,-1,-1,-1,-1,-1,-1,-1,-1],"loss_changes":[2.8938975E3,2.7042058E3,1.1766333E2,2.3193606E3,1.6811561E3,4.3411263E1,1.9831787E1,9.6959644E2,1.1916123E3,6.0725134E2,1.418283E3,5.443637E1,1.8094666E1,1.851059E1,2.6188965E0,4.756997E2,3.8147415E2,1.1393108E3,4.51484E2,3.0817004E2,3.8214587E2,3.673152E2,1.3565288E3,3.7680958E1,2.7716188E1,1.0367383E1,7.5578003E0,1.5881658E1,9.408731E0,2.4020996E0,0E0,1.8890854E2,3.1358643E2,2.5021262E2,2.9201447E2,8.9995416E2,1.0890796E3,2.0735304E2,6.370227E1,1.6024574E2,3.1077386E2,2.7572693E2,8.1822784E1,2.0203412E2,2.951587E1,7.9993353E2,8.1726E2,2.7900208E1,2.6504395E1,1.7936049E1,3.8568916E1,3.6608365E0,4.760051E0,5.2798615E0,1.306881E1,2.2002354E0,5.4684633E-1,6.3312244E0,7.3757668E0,1.4255371E0,1.5790249E1,0E0,0E0,0E0,0E0,0E0,0E0,0E0,0E0,0E0,0E0,0E0,0E0,0E0,0E0,0E0,0E0,0E0,0E0,0E0,0E0,0E0,0E0,0E0,0E0,0E0,0E0,0E0,0E0,0E0,0E0,0E0,0E0,0E0,0E0,0E0,0E0,0E0,0E0,0E0,0E0,0E0,0E0,0E0,0E0,0E0,0E0,0E0,0E0,0E0,0E0,0E0,0E0,0E0,0E0,0E0,0E0,